/interests/collection_category/sub_categories -0.08161555 0.047985293 -0.016318534 0.14576231 0.0059215026 0.04329546 -0.18171369 -0.15494463 -0.0056261644 -0.01756337 -0.14649267 -0.05822738 0.093376115 -0.14483635 -0.11172117 0.1575136 -0.0644406 -0.12459535 -0.03965094 0.15055698 0.11765014 -0.15010831 0.01815465 0.03574798 -0.15342972 -0.0042622653 0.063477896 -0.1289965 0.051654205 -0.14895071 -0.04474868 0.05042122 0.027675737 -0.12252419 0.028331019 0.117470644 0.09882396 0.114501044 0.058394358 -0.11385595 0.015743358 0.08417484 -0.106097035 -0.08000562 -0.065376356 0.09792923 0.061180126 -0.1013895 -0.18871719 -0.024924079 -0.17975174 0.0010952968 0.09715843 -0.15649708 0.100097395 0.026401475 -0.029178118 0.0375708 -0.0071002487 0.042597633 -0.15528493 -0.09216174 0.17040521 0.06659026 0.05275959 0.04260568 -0.16307124 0.18610775 0.018268973 0.026852546 0.10603893 0.14826779 0.10755148 -0.12729496 -0.024663977 0.0045625605 -0.062860735 0.020301972 0.12107081 -0.16966167 -0.041541815 -0.12102184 -0.1689766 0.022362452 0.08334451 -0.13330095 -0.07678138 0.011551836 -0.15956815 -0.19614929 -0.06998295 0.040359583 -0.06563589 0.04777803 -0.15015978 -0.13332117 0.1496339 0.0036789011 0.09948021 -0.07303486
/location/hud_foreclosure_area/estimated_number_foreclosures./measurement_unit/dated_integer/source 0.12651816 -0.6129355 -0.023620674 0.30665183 0.26502857 0.1040723 0.022969976 -0.09709925 0.24668863 0.7755875 -0.063457035 0.35563532 -0.16449359 -0.4532549 -0.13599664 -0.33412197 0.25636572 0.15170659 0.11426116 0.24386522 0.33217195 -0.19952719 0.0031983182 0.34109914 0.24934945 -0.010106152 0.24155746 -0.43121076 0.27288696 -0.26778 -0.2968515 -0.18783738 -0.11187082 -0.33261356 -0.5321603 -0.20974478 -0.33324996 0.35825586 -0.3048385 0.110924296 0.17597878 0.05875289 0.35550907 0.1802375 0.24778338 0.12915917 -0.68669236 -0.6190076 0.33687118 -0.09510379 -0.08114861 -0.21973337 -0.4649163 -0.1412424 -0.04408173 -0.16627531 -0.061816894 -0.33366787 0.18577741 0.07438323 -0.06206349 -0.47427788 0.2978576 0.3092859 -0.03757135 0.057106663 -0.13472392 -0.1800463 0.19976646 0.39337996 0.2420684 -0.10062728 -0.38591373 -0.76013714 -0.32731536 0.19512318 -0.42191967 0.04953676 0.1478347 -0.32745352 -0.40912703 -0.05473939 0.10136175 0.26511794 -0.27948266 -0.45188498 0.12374511 -0.02891855 -0.52896935 -0.10643656 -0.2987703 0.19813542 0.086952396 0.43686023 -0.34675044 0.014837793 -0.3624408 0.105960734 0.67353237 0.19304591
/education/fraternity_sorority/colors 0.119178645 -0.11334861 0.031041875 0.001501979 0.13291578 0.11021004 -0.13144277 -0.074429795 -0.2534213 0.010851777 7.3985336E-4 0.1076977 0.19872144 0.14750762 -0.10862073 -0.06932564 0.10186647 0.120992355 0.10532176 0.036869522 0.13451798 0.10121717 -0.13280381 -0.02302299 -0.0038233467 -0.035809416 0.038165256 -0.026684161 -0.15180576 -0.065212406 0.010113911 -0.08783652 -0.16628258 -0.025606202 -0.0520738 0.03217293 -0.009341299 -0.097831376 0.0705553 0.091851935 0.049695615 -0.17228235 -0.10785109 0.17558324 0.14242929 -0.16577025 -0.17129625 -0.1133844 0.08293846 -0.14433077 -0.109011956 0.06434204 -0.147489 0.07797537 -0.13313985 0.042095594 0.14075463 -0.014795979 0.0851187 -0.05016655 -0.21190633 -0.0383416 0.0043656467 -0.12023736 0.021670112 0.048581537 0.010032975 0.032751482 -0.022135878 -0.109075636 0.041954212 0.06319658 0.022294981 0.10349006 0.1255826 0.05227952 0.17134912 0.100167595 0.1663359 0.062303167 -0.15583974 -0.05893051 -0.038026247 -0.08093658 -0.04054423 -0.04004607 -0.10746687 -0.12899098 -0.16707589 -0.23604964 -0.05859576 -0.0892632 0.015803503 0.009481004 -0.13656732 -0.0031015468 -0.03738878 -0.13777913 0.12148465 -0.06953734
/user/szaijan/fantasy_football/position/player 0.10589001 0.11552864 -0.117897004 -0.17169406 0.043023143 -0.0067299837 -0.06129332 0.021695478 0.020607522 -0.061994486 0.024023524 0.012779223 0.014938081 0.092557654 -0.090152636 0.16432363 -0.101842 -0.04173619 0.18450946 -0.089189775 0.118550494 0.12624946 -0.015351376 -0.18866527 -0.024877232 -0.16583243 -0.16919194 -0.061098713 0.09109234 -0.03089941 0.058023598 0.0019094093 0.15349631 0.026499057 -0.1800919 -0.07021468 0.15317148 0.118513055 -0.074537374 -0.1021897 -0.0073342207 0.012588536 -0.08888665 0.04154369 0.14985287 0.03750877 -0.05031508 -0.07418968 0.039152864 0.05408561 -0.024883438 -0.11705317 -0.092738576 0.092088856 -0.13339093 0.12053676 0.060546663 0.04789907 0.1930378 0.12512931 6.6309876E-4 0.019790852 0.04923675 0.13114461 -0.024157671 0.13535246 0.005410822 0.16221555 -0.10977174 -0.09676876 0.14575548 0.09687312 -0.06393255 0.10997586 0.0020872373 -0.08520395 -0.026291795 0.011665432 0.112491034 -0.08546111 0.054154035 0.034197096 0.10800721 -0.11871334 -0.11469408 -0.12073509 -0.1353214 0.03631026 -0.0672069 -0.018067373 -0.0023404178 0.13848694 -0.16386697 -0.034118038 -0.0593863 -0.15634058 -0.022518128 0.021013793 -0.023716567 -0.03225804
/award/award_winning_work/awards_won./award/award_honor/honored_for -0.0030342867 0.013966432 0.0029027355 0.005149456 -0.007874005 -0.0023749094 0.013867306 0.022832703 0.023005903 0.009972902 0.012113386 0.014116605 -0.009039024 -0.03943939 0.007839654 0.041527692 0.01595824 0.014901826 -0.007030282 -0.02967134 -0.0033065395 0.033895273 0.0068622846 0.009203498 0.04632842 -0.013817852 0.011591363 -0.016076472 -0.015897026 0.040526755 -0.005137624 0.013553386 -0.006274188 0.008247295 -0.026765896 0.003432036 0.015586393 0.025288908 -0.029226627 -0.0023502477 -0.054474123 -0.049233645 -0.029499285 -0.0519264 0.04128657 0.0020431357 0.03101855 -0.04542782 0.019492544 -0.001881028 0.019283354 -0.004300955 -0.01262517 -0.018857073 -0.012928351 0.02136557 -0.019960789 -0.01539258 -0.038628355 -0.009967653 0.006290198 0.006982715 -0.0071904412 -0.00861287 0.04034514 0.010175189 0.0070653157 0.035290305 0.027030578 0.0048492723 0.015987284 -0.040564887 0.021129549 -0.042248636 0.02570511 0.024063742 -0.037550297 -0.040369354 0.009584222 0.02441085 0.004617098 -0.014481796 -0.024360828 -0.01666067 0.010075367 -0.024440851 0.0111942105 0.028820315 0.018816346 0.016214851 -0.013325425 -0.01102111 -0.010531104 0.017876077 0.04562512 -0.03950039 -0.0065649985 -0.035954412 0.023376672 0.021068476
/aviation/airport/airlines./aviation/airline_airport_presence/cities_served -0.13566807 -0.0068337326 0.11807332 -0.12245244 -0.04061095 0.05095107 0.056899372 -0.065518744 0.010137017 -0.033589106 0.10987728 -0.2429412 -0.055358756 0.060725883 -0.037172843 -0.11250299 0.21802998 -0.22463344 0.08818069 0.25790328 -0.015846564 0.116157204 0.1179265 -0.030707723 -0.08643786 0.16322178 0.08575301 -0.13467188 0.14796256 -0.0403844 -0.13935685 -0.14007044 0.04760377 -0.1844479 0.024321659 0.09996475 0.009782752 0.14392903 1.3899541E-4 0.102718316 0.16376573 0.038222678 -0.016071165 0.18914492 0.24166912 -0.0744885 -0.084703386 -0.03147125 -0.04771072 0.23770268 -0.18335402 0.1638613 0.21976416 0.16318057 -0.038131457 0.023597658 -0.26692367 0.20204139 -0.19899935 0.10362529 -0.17492828 -0.03231933 -0.13587439 -0.22203816 0.3079459 -0.15592606 -0.106027626 -0.041096922 0.1426863 0.06495732 -0.15158424 0.2314504 -0.08087849 -0.20848534 -0.042823873 0.14684604 -0.10097184 0.060457304 -2.811257E-4 0.0038270515 0.12155627 0.016347742 0.2189092 -0.14616172 -0.025162347 -0.17472857 0.09439816 -0.13494016 -0.27173665 0.31714654 -0.14776191 0.13369219 -0.18131348 0.052867766 0.26058674 -0.14443018 -0.3772148 -0.068561725 -0.1114376 0.076885976
/computer/operating_system/developer 0.035452135 0.024932679 -0.06492094 -0.0075315367 0.16539676 0.15273036 -0.068027295 0.007311512 -0.034688875 0.24560337 0.16797255 -0.07721916 0.08997922 -0.019528836 -0.03333029 -0.03602611 0.1856621 0.1449551 -0.060313717 -0.12784871 0.003592979 -0.026388107 -0.12570183 0.15024273 0.117079936 0.07402716 -0.13523446 -0.09073045 0.15097834 0.15970634 -0.0048714876 -0.007956201 0.08124012 0.15380058 -0.09033592 0.058865793 -0.046944857 -0.12638578 0.108125806 0.16539736 0.15346442 -0.08495825 -0.09314303 -0.06429969 -0.18856207 0.16553031 -0.15913035 0.04153692 0.114707395 0.036492255 0.02758991 0.013540372 0.060568124 -0.21279214 0.15592456 -0.07559157 -0.0076424694 -0.1446171 -0.032452963 -0.08586819 0.049825676 0.14121008 -0.0133610675 -0.006259591 -0.12231656 -0.052301403 0.07460815 0.1309649 -0.071371146 -0.07482315 0.13735874 0.12059494 0.21905127 -0.14938025 0.10822973 -0.09131689 0.08629668 0.04001041 0.0017912351 -0.026979307 -0.13780317 -0.12995261 -0.07588558 -0.010293618 0.09824471 -0.14517407 -0.07985048 -0.021920325 -0.029873462 -0.07685586 0.051301103 -0.08474409 0.042307016 0.08776383 0.08355494 -0.0066417023 -0.10950325 -0.12651503 -0.020234423 0.102947496
/tv/tv_series_episode/writer -0.011224878 0.086037345 0.11415077 0.16308762 0.08691092 -0.08547111 -0.10894522 -0.0234875 0.10801804 0.08764344 -0.10400612 -0.0041836537 -0.1593053 0.14085755 -0.005533025 -0.04245094 0.09141832 -0.15101242 -0.009139731 -0.19099443 -0.08867733 -0.026536487 -0.011087432 -0.15502626 -0.03993199 0.14321232 -0.048546284 -0.08799492 -0.1334685 -0.12972982 -0.1304752 0.0764781 0.05136424 -0.012950036 -0.029535996 0.12844922 0.060906116 0.04801573 -0.1494271 0.055676434 0.032613087 -0.122903496 0.011434099 -0.047194723 -0.12046857 0.0061369515 0.07739661 -0.10507329 -0.07064334 0.110927425 0.10779897 0.15101258 -0.14781442 -0.10563729 -0.07392642 -0.13871115 0.13879904 -0.1934181 -0.081891246 0.02885441 -0.123437986 -0.09937459 -0.022297207 0.0842655 -0.05641762 0.11000442 0.09140216 -0.0749035 -0.10937905 0.0575619 0.15530682 -0.094949946 -0.057864945 -0.016452478 0.0055996636 -0.12063081 -0.09527754 -0.14818889 -0.020859975 0.069250375 -0.05228048 -0.19686499 -0.010226278 -0.1428142 0.0017367792 0.0294174 -0.12385051 0.023676323 0.022343524 0.09945482 -0.02556907 0.119250774 0.19444841 0.031331033 0.015885754 0.16635899 -0.039114863 0.050372824 0.01635747 0.042092957
/cvg/computer_videogame/designers -0.14511776 0.05889986 -0.028605359 -0.13601486 -0.10067389 0.17739221 0.12916082 0.012166901 0.17711434 -0.15761384 -0.10920345 0.1358681 -0.09784878 -0.15018344 -0.04288061 -0.110456675 -0.1564877 0.0054978244 0.0071063447 -0.12828407 0.12407228 -0.073379844 -7.957271E-4 -0.09849046 0.17475802 -0.06735172 0.097870804 0.119875126 -0.08238705 0.040210865 -0.15175892 -0.06164863 0.06431391 -0.06750287 0.1358092 0.04877713 -0.051250197 -0.0906787 -0.022911066 0.0010369025 -0.06281488 0.06191699 -0.10868428 -0.043516923 0.15016846 0.009821399 -0.016182715 -0.058475073 0.0037772902 -0.10468626 -0.14146096 0.13898548 -0.08293626 0.06297111 -0.15869129 0.045346823 0.0044826334 0.057625763 -0.093067974 0.18006054 0.12521093 -0.07512615 0.024702013 0.086778745 -0.092592195 0.03177033 0.14406551 -0.065797456 -0.13632026 -0.16258611 -0.1621388 -0.11169647 0.05637225 -0.086069524 -0.14879048 -0.18341638 0.049182326 -0.14799964 0.04033904 0.083655834 0.102619745 -0.017583994 -0.103372686 -0.10493285 -0.10395543 -0.01784933 -0.12375691 -0.086261414 0.1060254 -0.15425654 0.13674605 -0.053740025 -0.030822225 -0.004980621 -0.07701384 -0.055163264 -0.16084619 -0.050408803 0.017898627 -0.14563812
/book/written_work/original_language -0.13875908 -0.10927813 0.12019126 -0.09252404 0.014889249 0.17049064 -0.09031133 -0.05784163 -0.06189369 0.015321096 0.088054694 -0.11572068 -0.043823015 -0.12988031 -0.050639626 -0.05815159 -0.10706601 -0.1268463 0.043240216 0.07442806 -0.18022342 0.020644281 0.13989612 0.049759615 0.05677089 0.08182412 -0.1309162 0.13108657 -0.089181714 0.15014505 0.10340317 -0.1156851 -0.009933347 0.080520324 -0.18972176 -0.09201829 0.14270756 -0.057371594 -0.17441678 -0.04616699 0.107727274 -0.17366251 -0.07221388 0.009394422 -0.13956945 0.18801366 0.07639633 0.0137471035 0.104111105 0.053298377 0.06936782 -0.16167247 0.024479875 -0.059520617 0.13196641 0.1245957 0.020080473 0.09254545 -0.06524339 -0.06408086 0.10379224 -0.17673275 0.12949891 0.13670625 0.08129944 -0.036929328 0.07027576 0.10877296 -0.053107306 -0.10847552 -0.041819263 0.032191094 0.07698973 0.07996351 -0.123335324 0.12878011 -0.100440696 -0.06247382 -0.11925379 -0.07692662 -0.0852588 -0.100019574 0.15570137 -0.0775712 -0.08091717 0.10842929 -0.120116726 -0.03475833 -0.02949933 -0.07715985 0.14273465 0.030993052 0.12070136 -0.016567506 -0.10367737 -0.08301186 -0.08500263 -0.13157742 -0.07728924 -0.1561783
/sports/sports_team/roster./american_football/football_historical_roster_position/player -0.09388065 -0.00503061 -0.10228029 0.11278596 0.0437113 -0.17856519 0.08807999 -0.07051481 -0.13556968 0.013397663 -0.106860735 -0.13479698 -0.14591202 -0.035142813 -0.0136683285 -0.02895129 0.0019277992 0.13552009 0.0811428 0.14763767 -0.012214073 -0.11193397 0.090559885 -0.12748893 -0.044845182 0.090187155 -0.1941792 -0.067341045 0.081117325 -0.098519795 0.088060305 -0.08723247 -0.012344863 0.018182114 -0.013028718 -0.029773207 -0.062173393 -0.20220216 0.07413156 0.0011269229 0.21049976 0.12030069 -0.09611492 0.0344947 0.090009265 0.19764212 -0.13570073 -0.0055341395 -0.03055676 0.032460257 0.077056855 0.07105264 0.15986118 0.052545544 0.15970612 0.016964953 -0.119517036 0.043960433 -0.015455635 -0.046111524 0.16688304 -0.064021155 -0.052416287 -0.0425146 0.08637184 -0.07464649 0.17815278 -0.2130321 -0.12893927 0.04351857 0.009588286 -0.06156815 -0.068516284 -0.1446397 -0.06921063 -0.19232315 0.12511852 0.14264607 -0.0881236 0.011428477 0.03757872 -0.0403874 -0.064577825 -0.07395073 -0.1793363 -0.11206198 -0.046508778 -0.037760917 0.03973502 -0.16637129 -0.06862531 0.07585612 0.032391343 0.14650205 -0.04435276 -0.07538094 -0.10877195 0.079079084 -0.088366635 0.050592285
/tv/tv_program/languages -0.44905367 -0.15695615 0.11263564 -0.37240025 -0.43931317 0.04775353 -0.07494557 0.03117641 0.21574022 -0.07507655 -0.4794553 0.06773946 0.25779653 0.0027746211 0.28271922 -0.017581815 0.016410334 0.5021638 0.12869613 -0.14094462 -0.10653168 -0.17776556 -0.22588997 0.051634613 0.1283242 0.18012828 0.11520533 0.2071409 -0.1808738 -0.26359344 -0.053933717 -0.36992043 0.026473526 -0.28675684 0.20965227 0.16321255 -0.0014645976 -0.13168755 -0.3083552 0.052381646 0.6494912 -0.0758061 -0.41830182 -0.2091695 -0.0047445702 0.28969628 -0.30146325 0.029715609 0.0136641245 -0.15010113 -0.25067174 -0.255429 -0.16911922 -0.12485987 -0.044785853 0.7841571 0.26521993 -0.08962333 -0.2913152 0.06919611 0.13102767 0.16683769 -0.24831077 0.07991712 0.15466064 -0.01841648 0.3804732 -0.37538132 -0.18402503 -0.22742762 -0.06558479 0.083028264 0.45273733 -0.17044139 -0.3720576 -0.018611422 0.09437522 -0.011712768 0.5076742 0.20350604 0.23909669 -0.0045017474 0.35051236 -0.31848496 -0.18912528 -0.32751063 -0.04670901 -0.28341714 -0.031184226 -0.1482729 -0.12912448 0.046346363 -0.087169625 -0.039741646 0.10495784 0.18535298 0.0968314 0.13248962 0.09577083 -0.30383494
/royalty/monarch/royal_line 0.11870405 -0.122444555 0.054425634 -0.012772013 -0.035311718 -0.07168694 -0.037493747 0.037087295 0.021671364 -0.14946914 -0.010277985 -0.026570763 0.06903154 0.15689844 0.09317177 -0.10528645 0.12727793 -0.16031691 0.05292111 -0.13581082 0.10114875 -0.014129381 -0.13792078 0.07355583 -0.05979125 -0.0869898 -0.17246984 0.025831833 0.010848583 0.10133976 -0.06404363 0.09117389 -0.10949639 -0.033574983 -0.119739056 0.15372936 0.088787 0.03319311 -0.055688422 -0.031704847 0.14489448 -0.050523147 0.11607835 -0.053052835 -0.025908772 0.04791682 0.06975154 0.08708895 0.111486055 0.07788004 -0.037508413 -0.090531416 -0.11850145 0.14361031 -0.1128836 -0.107999966 -0.0764163 0.09741609 -0.15211286 -0.043658596 -0.13495745 -0.042913713 0.03599593 0.008405917 -0.022684924 -0.1180444 0.19537026 0.0067800405 -0.05786797 -0.0049752817 0.030023957 0.124630295 -0.19924967 0.119400986 0.14659938 0.11278507 -0.15859573 -0.13222042 -0.10008039 -0.16722319 0.111764096 0.054590117 0.039144102 -0.12317997 0.07547443 -0.18099971 0.095534034 -0.17698996 -0.07174359 0.13576387 -0.2015922 0.1749941 0.06638548 -0.17703763 -0.031831644 0.13455036 -0.12055768 0.048704773 -0.10812021 -0.05793335
/base/schemastaging/tv_actor_extra/regular_dubbing_performances./base/schemastaging/tv_star_dubbing_performance/language 0.09672619 -0.25657374 -0.052687977 -0.30200118 0.08090745 -0.015180702 -0.22765212 0.3225205 0.34691846 0.003910255 -0.012156463 0.00274864 -0.2849344 -0.24752253 -0.062184837 -0.025255324 0.052902535 0.14922073 -0.281093 0.09915751 0.039241206 -0.10530258 0.28704286 0.123991646 -0.001316264 0.05483772 0.10538133 0.10425005 0.18226011 -0.07204778 -0.3306175 0.24665034 -0.067470424 -0.41277188 0.081726626 0.22393814 0.32066134 -0.053914312 -0.23133825 0.18633768 -0.25515556 0.0965875 -0.1397448 -0.17854945 -0.013300167 0.40467817 0.18450308 -0.20557702 -0.04526961 0.17825098 -0.094092384 -0.22969717 -0.3009468 -0.02155896 0.13156024 0.07347725 0.011725141 0.19274044 -0.19576359 0.41038346 0.16511355 0.035161246 0.073869415 0.0821475 0.2775653 -0.24550661 0.14086099 -0.14772573 -0.052033283 0.07806805 -0.028190857 0.06824055 -0.17544247 0.2931389 -0.1617704 -0.032661516 -0.25295097 -0.20422338 0.1714884 0.27584064 0.058624092 0.32842758 0.010850625 -0.24648309 -0.16654655 -0.03708834 0.2703643 0.065896094 -0.22207627 -0.04995194 0.36157504 0.20192637 -0.20935582 -0.20692381 0.032604363 -0.0708009 -0.16742788 -0.15281823 0.03779588 -0.09600462
/visual_art/artwork/art_subject -0.095350206 -0.13475685 0.110689536 0.001770707 -5.8567605E-4 -0.1206468 0.0013753267 -0.10022173 0.17566818 -0.048524134 -0.032766923 -0.17080376 -0.022323845 -0.030677406 -0.16207287 0.025584865 0.1856369 -0.105239265 -0.0991797 0.17080526 0.07897614 -0.07534966 -0.11372076 0.15773287 0.15156363 -0.107925996 -0.1533664 -0.15827592 -0.036780782 -0.10826832 -0.11391625 -0.048895348 -0.03863539 -0.028423402 0.018099807 0.041476395 -0.04667382 -0.16393119 -0.087438375 0.1376498 -0.0213346 -0.048862964 -0.08386953 -0.12633035 0.12112513 -0.036752388 0.005335673 0.08742478 0.15598553 0.09578938 0.028623816 -0.14518088 -0.035003778 -0.15933664 0.022779211 0.052390177 -0.12858528 0.017858725 0.05575895 0.014185626 -0.0037300573 0.026908645 -0.10891483 0.07679634 0.18641607 -0.09023109 0.12768377 0.035221554 0.06597977 0.04698321 -0.10223567 -0.05308707 0.11509722 0.08039866 -0.12050585 -0.041635506 -0.11335508 -0.14682688 -0.01024975 -0.051423103 0.13247292 -0.035412744 0.026172446 0.1643375 -0.0298768 -0.13608025 0.1071881 -0.03768549 -0.08085926 -0.019706797 -0.1562221 0.027474409 -0.05468762 0.17130019 -0.07664469 -0.089778975 -0.1523157 0.17911665 0.04610901 0.12899457
/film/film_costumer_designer/costume_design_for_film 0.18093213 -0.68585706 -0.22132748 0.12039529 0.4151378 -0.03779915 0.3938371 0.30194154 0.32778668 0.06018699 -0.3123181 -0.07909707 -0.21072488 -0.18013334 -0.13805667 -0.009330985 0.06329972 0.32447022 -0.014484024 0.2409973 0.24744517 0.073234014 0.13935965 -0.1867091 -0.19460689 0.07997499 0.10963179 0.062202387 -0.046192743 -0.098567486 -0.106122516 0.32058042 0.13695092 -0.1767328 -0.3895369 -0.023566408 0.32448924 -0.2697447 0.031788122 0.22253065 -0.23130417 0.013941851 0.19248623 0.05835129 -0.2215237 -0.29112846 0.049376704 0.11645008 0.15123214 0.06516257 0.078700185 -0.2030858 0.030761942 0.119841754 0.103372246 -0.45595485 -0.1156437 0.4508376 -0.023717647 -0.016954582 -0.06503688 -0.5095932 0.20254168 -0.06302594 -0.34511024 0.4123109 -0.0024842976 0.08896143 -0.13890484 -0.049073786 0.3847329 0.13564949 -0.3980046 0.13817362 -0.1554632 0.13073476 -0.046122678 -0.46420002 -0.0747075 0.05562088 -0.13039547 0.4207928 -0.29841962 -0.013875739 0.32853794 0.08847771 0.29245386 0.065393925 -0.11780676 0.5337099 0.16256365 0.003162792 0.057497405 0.14698383 -0.09464909 0.05627974 -0.15789941 -0.19722347 -0.05360854 -0.28792825
/olympics/olympic_games/medals_awarded./olympics/olympic_medal_honor/medalist -0.007705152 0.06378413 0.067449614 0.09431522 0.15100482 0.014735737 -0.27375177 -0.19167382 0.13059404 0.11610772 0.11819363 0.13952959 0.23226854 -0.04793877 0.19498241 -0.13095929 0.12022337 -0.112042055 0.11614842 -0.13258591 -0.07225875 0.1580019 -0.121958934 -0.0099492 -0.109177254 0.08448141 -0.045399513 0.023412652 0.047413208 -0.114469014 0.17947516 -0.09555487 0.06868107 0.098133706 0.007757544 -0.18369958 0.09868923 -0.2377797 0.03257479 0.15133041 0.17006832 0.0015641185 -0.00518259 -0.088867515 -0.04078364 -0.12491975 0.10686066 -0.017249862 -0.049173806 0.12793872 -0.14637625 -0.0075719655 0.034616806 0.084680445 0.12582257 -0.1405212 -0.015611346 -0.057547584 -0.10739778 0.029076932 -0.021706305 -0.07241121 0.24784067 0.12294445 -0.00785059 -0.02125306 0.017249508 -0.028479487 0.19496453 0.0658933 0.06672802 -0.04621475 0.062053468 -0.10756209 -0.039548215 0.032838233 0.17355435 -0.057424087 -0.12881799 0.1270408 -7.4629765E-4 -0.021297768 -0.01548537 -0.07195761 -0.043599516 -0.24671215 0.16076979 -0.072010554 0.22133645 -0.030368563 0.13318995 0.20237365 0.22963643 -0.096399836 -0.02378502 0.06430906 -0.25348645 0.026813377 0.078773834 -0.17917648
/language/human_language/dialects 0.11230153 -0.08805397 -0.05899295 -0.120037 -0.052787665 0.16292262 0.15967238 -0.056211434 -0.08069393 -0.09207504 -0.17648444 0.08200658 0.07685944 0.07855797 0.14471139 -0.13665679 -0.1651645 0.11001324 0.05787301 0.18575391 0.100917764 -0.104475304 0.16620195 -0.0515833 -0.10961839 -0.08041325 -0.06298724 -0.17097147 0.13417083 0.096420474 0.09157261 0.0486773 -0.045811262 -0.015473511 -0.037746035 0.027713386 -0.048114166 -0.17857721 0.06358263 -0.0072977063 0.08533169 -0.0051687765 0.03749576 0.08210927 -0.080362484 0.057457026 -0.07686744 -0.006229062 0.05236222 -0.17148319 0.04936787 -0.021616066 0.18771335 0.013187068 -0.023373077 0.029637167 0.16945028 -0.029718539 -0.0032362465 -0.14883633 0.071405545 -0.03820758 -0.15861757 -0.042256832 -0.01337659 -0.016541451 0.14729033 -0.10583191 -0.11809282 0.1776733 0.11367455 0.1257376 0.11125073 -0.044972494 0.03610497 0.08083937 0.036861867 -0.11229299 0.0857808 0.09721407 0.017545592 -0.15716128 -0.14620197 -0.061848138 -0.057758603 0.06763153 -0.15416725 0.06924848 0.03580085 0.11058661 0.14122054 0.019050075 0.113500044 -0.027754257 -0.09377101 -0.08564191 -0.07722483 0.004784533 0.0918154 -0.06711861
/award/award_category/presenting_organization 0.0985065 -0.08815818 -0.05943762 0.065011114 0.040083263 0.06807267 -0.10786236 0.1270067 0.028993025 -0.02538199 0.071867466 0.26004457 0.078130856 0.1177485 -0.26477286 0.04885835 0.14496367 0.1598754 0.16464145 0.16093183 0.1576897 0.31646073 -0.053767826 -0.23461847 0.23603596 0.10625147 0.039358743 -0.37624276 -0.01925331 0.003944785 -0.17957233 0.02635714 -0.009604701 -0.22161475 0.15393311 0.037273407 0.32225433 0.4287205 -0.101058036 0.19844855 -0.18962656 0.29209182 0.05265608 0.028627787 -0.1845655 0.16768748 -0.02395114 0.18512212 0.062357858 -0.12917992 0.3670826 -0.0644871 0.2950127 -0.0022061144 0.15963374 0.19339076 -0.10457524 -0.35037696 -0.06447203 0.03165485 0.35117564 0.029362934 -0.6291552 0.11527822 0.008082205 -0.16639766 0.05582025 0.15811898 -0.1898876 0.116385564 -0.20159759 -0.014108938 0.12294057 -0.10637097 -0.18672013 0.1235119 0.09589446 -0.18181674 -0.2028858 -0.120246135 -0.14037567 0.18640523 0.08458256 -0.14498797 -0.24080428 0.14859343 0.14110166 0.02655165 -0.12641189 0.23944809 -0.06447409 -0.12129988 0.08426809 -0.064260185 -0.098901644 -0.15545441 -0.089048624 0.0767635 -0.12026306 -0.07708863
/geography/island/island_group 0.013225374 -0.120822 -0.021918869 -0.09167243 0.034517862 0.0016986949 -0.08206177 -0.12331314 0.17076124 0.16014785 0.06177883 -0.036183838 0.0015536236 -0.042141225 0.11760092 0.11013209 0.03187354 -0.13931972 0.13697879 -7.0253847E-4 -0.03562666 -0.055652145 0.13025172 -0.12406218 0.15319034 -0.10717934 0.09411091 0.13162524 0.0117597 0.12984772 -0.12491532 0.16032535 -0.042512026 -0.13047661 0.13026096 0.016202262 -0.12685668 -0.07093837 -0.108594686 0.07269036 -0.07732514 0.0079616895 0.08022767 -0.017071977 -0.0832188 -0.08185739 0.103007644 0.056569368 0.09257283 5.579282E-4 -0.025872586 -0.1639418 0.10598106 -0.21636604 -0.11796327 0.03455502 0.0277478 -0.11078417 -0.15127678 0.14754573 0.0026945337 -0.142352 0.10461632 -0.08977865 -0.16641101 0.09071128 -0.12730156 0.030496804 0.01980507 -0.04683247 -0.099968076 -0.023566084 0.101077095 0.017707381 -0.052554604 -0.10900055 -0.007209614 0.11845387 0.00951176 -0.05411066 -0.19452341 -0.012977803 -0.14162214 0.17937501 -0.116325185 0.19924523 -0.010931457 -0.17057365 -0.10428028 0.11273418 -0.15502866 0.045629334 -0.117183566 -0.024228407 0.09895684 -0.0046252348 0.18339255 -0.03235869 0.052333985 0.16830099
/base/activism/activist/area_of_activism 0.050835226 -0.18047015 0.06486235 -0.0507147 -0.13344619 0.26217586 0.050998658 0.16416489 0.08139745 0.16565467 -0.24046183 -0.069506474 -0.14029723 0.08111759 0.2695782 0.3401809 -0.0115401475 -0.0043730335 -0.25917464 -0.5040943 0.22471942 0.0035179385 -0.032212712 -0.031085856 -0.12502497 -0.10515507 0.17792681 -0.11143237 -0.25131738 -0.04432412 0.05101612 0.17102128 -0.29043615 0.11422776 0.06449678 0.21492118 0.13952206 0.0068329694 0.15625641 0.10592463 -0.12203411 0.09937926 -0.13368745 -0.009123917 -0.21712051 -0.31635657 0.03780437 0.1482329 0.057640504 -0.19136298 -0.17416823 -0.055434205 -0.30628437 -0.15837863 -0.12119021 0.0019114389 0.35023358 0.26598236 0.0063996166 -0.137351 0.2315317 0.036417935 0.083899945 0.25667328 -0.27182937 -0.06623014 0.34524572 -0.166597 -0.006619927 0.20921612 0.11552826 0.030593539 0.004680864 0.39707157 0.57007706 0.17256108 -0.064102724 -0.0786155 -0.29222596 0.0055616046 0.23018861 0.37256432 0.27475724 0.22840104 0.16171181 -0.1946418 -0.03346913 0.123423345 0.0027833653 -0.1524898 0.050877124 0.26948014 -0.2162574 -0.05419905 -8.0591184E-5 -0.17866276 0.16638784 -0.34492373 -0.15662263 0.2259279
/cvg/computer_videogame/publisher 0.060307182 0.15346582 -0.08742947 -0.06304265 0.031358577 0.092390805 0.04866188 0.11565262 0.12020809 0.15850013 0.1510491 -0.20467164 -0.05726785 0.013888347 -0.1699604 0.121979676 -0.114438176 0.061770648 -0.0074642375 0.025974693 -0.01876382 0.1859153 -0.011588843 -0.15206186 0.08549853 -0.105161406 0.16618243 -0.17997773 -0.016989496 0.031298816 -0.08317496 -0.06386924 0.061605643 -0.12941778 -0.10298386 -0.037505098 -0.22397642 -0.12295304 0.035705786 0.086231045 0.06274856 -0.114570126 -0.046843555 -0.18484624 -0.08904328 -0.022925831 0.14180802 -0.08561944 -0.08223664 -0.090420805 0.06946601 0.04360132 0.08154541 -0.1258087 -0.1250172 0.14186718 0.11090727 0.022892985 0.15217896 -0.04928527 0.07797715 0.03363892 0.104111955 0.114986874 -0.0587322 -0.17595509 0.16560021 0.06146674 -0.21536107 -0.037876625 -0.095215864 0.16592494 0.10370014 -0.02609231 -0.20574388 0.06175923 -0.17875075 0.027796974 0.022559272 -0.12623824 0.13931358 -0.19572973 0.096256785 -0.04877985 -0.051084094 -0.16797632 0.09090403 -0.15857884 0.022407064 0.093192406 -0.018214455 -0.158434 0.05023825 0.044031557 -0.1868998 -0.17392994 -0.004538206 -0.012584685 0.17592593 0.03072408
/user/robert/military/military_person/participated_in_conflicts 0.13174132 0.120427035 -0.0058121067 -0.12263973 0.068833604 -0.09273126 -0.06965694 -0.14317505 0.07676231 0.052573502 -0.16635075 -0.16339736 0.012277988 0.07172693 0.023462068 0.03350591 -0.030192174 0.004049421 0.11629749 0.12403284 0.14381137 -0.02644868 -0.09622314 0.07829165 -0.15430683 -0.17942414 -0.08600048 -0.13688166 -0.07583366 -0.011766461 0.111914806 -0.06296629 0.15769738 -0.12435977 0.0324403 -0.082240455 0.104265474 0.10116295 0.09909216 -0.09607413 0.14848103 0.060751844 0.031840526 -0.1062749 0.03206081 0.1266332 0.00514995 -0.14696741 -0.13719323 0.0696687 -0.12422131 0.11730416 0.08141781 -0.10683502 -0.026658257 -0.066996105 -0.15141797 0.02820338 -0.10976703 0.08865582 -0.11590907 0.108972624 -0.044316553 -0.16248605 0.1279275 -0.02296929 -0.11318921 -0.13442254 -0.1628515 -0.031156559 0.045992836 -0.061127298 -0.05654529 0.06324329 -0.113833204 -0.06433674 0.0648021 0.13503796 -0.034950394 -0.06126961 0.06656042 0.01045872 0.15361007 -0.1716885 -0.0595499 0.006580015 0.02858358 -0.064263575 -0.15058641 0.117661476 -0.11887145 0.09036293 -0.13632405 -0.048488133 0.04117284 -0.0886499 0.09841716 -0.12655509 -0.17898406 0.14170323
/education/educational_institution/mascot 0.11857215 -0.092413306 -0.13822739 -0.0128526725 -0.012873627 -0.01960167 -0.20581348 -0.06619462 -0.012574643 0.18269792 0.20483485 0.029128375 -0.00532142 -0.105653465 -0.08381478 -0.0811609 0.15579812 -0.08854623 -0.03706707 0.09425448 -0.06705283 -0.2796439 -0.016774407 0.08077892 0.03438506 -0.0650655 -0.109882884 -0.11998455 -0.061014984 0.18527193 -0.028345983 0.0736468 -0.057981614 -0.13661951 -0.09446509 0.10466011 0.027716203 -0.08298713 0.084324926 0.12286109 0.05497127 0.1526445 -0.08162714 0.09686417 0.08889994 0.12851633 -0.1853991 0.008549945 -0.13363412 0.12562841 0.08443618 -0.052886296 -0.22615612 -0.084860764 0.025558699 -0.029561369 -0.052286517 0.020432439 -0.00847958 0.022729393 0.0395104 -0.22062668 -0.004594259 0.041665904 -0.06345844 0.10135789 0.021115988 0.057548586 -0.113685906 -0.04658685 0.055590402 0.084814794 -0.053958543 0.1064834 0.17313741 -0.005992285 -0.045430593 -0.15932418 -0.025947487 0.15160793 -0.12612177 -0.05884422 -0.08598031 -0.19324984 -0.0059429863 0.08205209 0.011841307 0.037777346 0.09388664 -0.09544661 0.10051258 -0.001237189 -0.17687719 0.17026868 -0.014563294 0.10067048 -0.07609269 0.17278752 0.059013825 0.13530871
/tv/tv_subject/tv_programs -0.105390415 -0.22393246 0.12742293 0.083419636 -0.07866463 0.1630995 -0.1677824 0.07857283 -0.04250173 0.013477835 0.21555695 0.12279507 -0.003689426 0.18617624 0.13900372 0.02796575 -0.14780778 0.029573964 -0.029022038 0.190858 -0.18059382 0.20161377 0.026914876 -0.12982836 0.20847018 -0.021969715 0.17903364 -0.09048865 0.26856703 0.062194042 -0.02250949 0.09671954 -0.17522246 -0.03435667 -0.07105093 -0.16252023 -0.023685174 -0.11389551 0.15920678 -0.019906444 -0.22808379 0.13530083 0.05118836 -0.04715543 -0.09119796 0.030890828 0.16765547 0.18589403 -0.02647855 -0.052993365 0.008534865 0.009627821 0.1326108 -0.085864715 0.10023141 -0.30628374 -0.05307315 -0.061221313 -0.041980293 0.047375847 0.13424589 -0.0063921334 0.024822114 0.05291696 -0.15809527 0.017166525 0.046513684 0.07504588 -0.057829723 -0.08199893 -0.074909925 -0.09285694 0.07510984 -0.041206222 0.19273895 -0.045368783 -0.111841224 0.05584787 -0.10743573 -0.06137471 0.007885452 0.06274382 -0.05876027 -0.027217358 -0.014066595 0.23084788 -0.07378031 -0.104472145 -0.23344596 0.1801918 0.1989133 -0.02409747 0.17755327 0.18119806 -0.093208306 -0.042243037 0.06177242 -0.045950722 -0.046040002 0.07773826
/olympics/olympic_athlete/medals_won./olympics/olympic_medal_honor/olympics 0.07443656 -0.08751977 -0.20787817 0.090763934 0.008477977 0.015533168 0.22623666 0.11424872 -0.13847215 -0.10533279 0.009713543 -0.09895739 -0.11702829 0.028148526 -0.06226687 0.16053505 -0.24239483 0.032959525 -0.089201696 0.093923144 0.22850719 -0.29580277 -0.002599008 0.13098624 -0.093515895 -0.028870374 0.21560381 0.104535006 0.16624364 0.05743578 -0.00572637 -0.1130881 0.008182713 -0.14263064 -0.014804954 -0.0913222 -0.040695086 0.22539577 0.0035082763 -0.084320836 -0.0028946358 0.10956553 0.04547187 0.0044872873 -0.07078146 0.031779528 -0.27970427 0.099148445 -0.08312558 0.030497612 0.06571841 0.08072854 0.02663696 0.023569116 -0.012575607 -0.08451576 -0.08155825 0.13897441 -0.05057958 0.21802326 -0.014021914 0.11028621 -0.19674566 -0.11776785 -0.053992145 -0.09049982 -0.114171 0.009050923 -0.18467867 -0.11822659 0.028651014 0.058149103 -0.0706484 0.036523666 -0.0035496177 0.09291238 -0.08143189 -0.13829315 -0.06497981 -0.08123751 -0.0488444 -0.021526786 0.2626085 0.15871538 0.07647656 0.1805435 -0.09984225 -0.05122314 -0.2970931 -0.002328006 -0.24019623 -0.035132512 -0.08910754 -0.031481422 0.12265582 0.048777033 0.17187336 -0.0038432525 -0.11797453 0.18013895
/food/ingredient/cuisine -0.058055144 -0.097702205 -0.04090601 -0.13197254 -0.16037184 -0.12150532 0.12034176 0.071023375 0.08319114 0.15817064 0.111992374 -0.038253874 0.090830795 0.087064944 -0.100950964 -0.19517474 -0.007277972 -0.082793966 -0.03757212 -0.119761586 0.15003274 0.14569697 0.10347349 0.15074748 0.11455961 0.11233771 0.11080392 -0.04064636 0.15788013 0.07910625 -0.12779558 -0.1265626 -0.035109546 -0.009617981 -0.10143807 0.03170505 -0.020609144 -0.044163927 0.06894906 0.037830856 0.060243715 -0.10407756 -0.17639942 -0.15801293 -0.008637482 -0.12803462 0.07084152 0.086754456 -0.045852862 0.061782517 -0.11215125 -0.11008414 -0.003939554 -0.12665056 0.06070502 0.030401908 -0.15219101 -0.13722715 0.106393114 -0.08684486 0.02905118 0.014482979 0.030259905 -0.120864585 0.18329518 0.05224201 -0.14860593 -0.08914117 0.09999982 0.07847462 -0.15825823 0.1457502 0.013736233 0.0023730402 -0.011120473 0.082736984 -0.11492448 0.014648616 -0.079113856 0.12232709 -0.16496417 -0.10716206 0.014159369 -0.08020894 -0.064879365 -0.11118347 -0.05066469 0.058929026 0.15743826 -0.0844393 0.17085648 -0.11769315 0.15480275 -0.12997063 -0.06632459 -0.06239399 0.10088631 0.07722046 0.16335441 0.02631804
/computer/software/languages_used 0.13223544 0.11896021 0.0098453 -0.0040829834 0.17353864 -0.18185623 0.012482069 -0.040312957 -0.0063247806 0.003251224 -0.1182175 -0.009453957 -0.20949513 -0.17503911 0.16358778 0.030640805 0.08090313 0.00524147 -0.027737694 -0.13257483 -0.114806615 -0.08390373 -0.17580818 0.15989336 -0.09847061 0.022479733 -0.017813819 0.09049871 0.050231405 0.024381662 -0.01956499 -0.03347287 0.25793117 0.08822286 -0.045567 -0.012283316 -0.1499306 -0.12054984 0.14175618 -0.14766924 0.20080619 -0.029788595 0.06076547 -0.008749981 -0.008011449 0.086103894 0.08076487 -0.058471635 0.07404006 -0.13496122 0.11737797 -0.108789645 -0.15150484 0.10968806 0.0792856 0.049470093 0.11256077 0.058100577 -0.072583064 0.17477171 -0.1475091 0.08542682 0.0925618 0.15175469 0.1691829 -0.13475716 -0.023976205 0.044290103 0.042743396 -0.01085576 -0.12048756 -0.1667094 -0.09503744 0.062334795 -0.08452523 -0.075451 0.003774802 0.10619523 0.053455625 -0.024152549 0.07919636 -0.03228556 0.018323025 0.2017469 0.18173188 -0.17550123 0.16867681 0.1649003 0.029878927 -0.0013944288 -0.14881308 -0.10664384 0.056019366 0.16624154 -0.069249876 -0.07453462 -0.063100904 0.2336897 -0.086135745 -0.016175734
/military/armed_force/military_posts./military/military_post_use/military_post -0.16395879 0.0764324 0.10181951 -0.16876085 0.1718017 -0.14892903 0.1505325 -0.14527224 0.12615813 -0.0049893656 0.077543005 0.06628145 -0.019096674 0.16165118 -0.120465316 0.11338105 -0.15236786 -0.15766564 -0.18491007 0.13886867 -0.02358886 0.05372371 -0.09769325 -0.009171863 -0.07593385 0.08326778 -0.01192433 -0.14311671 -0.013012979 0.051043607 -0.0467574 -0.11422746 0.03280536 0.07380152 -0.07453088 -0.17409964 0.14648081 -0.091174506 -0.11841414 0.14891014 0.1315792 -0.008791069 -0.0749557 -0.076515645 0.051768795 -0.03819469 -0.015466947 0.1269138 0.02235357 0.16341892 -0.0926256 0.106041856 0.07823567 0.15581782 0.079458915 -0.088511445 -0.13328466 -0.08635936 0.16641718 0.12514645 -0.07346154 0.08993517 -0.06915306 0.020417532 -0.076655924 -0.012805907 -0.014901201 -0.059157085 -0.13006088 0.024114009 0.12687506 0.032460343 -0.15277009 0.033208657 -0.053559706 -0.08814595 0.061724294 0.053504445 0.15841421 -0.1391255 -0.04288529 -0.12158585 -0.17062037 0.055707667 0.10597784 -0.051016208 0.06154593 -0.03156326 -0.024516948 0.11963877 -0.066540085 0.12603141 0.08858692 0.12717178 -0.01769755 0.017814146 0.06172971 -0.07350378 -0.08189784 -0.012113643
/tv/tv_personality/tv_regular_appearances./tv/tv_regular_personal_appearance/appearance_type -0.08423671 -0.21656948 -0.035869133 -0.12115055 -0.25120783 -0.24782348 0.23283507 0.46224973 0.16696541 -0.020122344 0.110957555 -0.039295997 -0.26154748 -0.03645815 -0.34414688 0.07277664 0.39395294 0.0217678 0.06938718 -0.45296717 -0.029479042 -0.18286112 -0.021226685 0.28862733 -0.54532593 -0.102104664 -0.040164456 -0.02891646 -0.31874007 0.0053723934 0.029146995 -0.04880723 -0.36731818 -0.23915622 -0.31674907 0.23124857 -0.13084535 -0.026071593 -0.021147097 0.056960408 -0.25183874 -0.14335825 -0.06286177 -0.10991319 -0.20250987 0.01039337 0.2537545 -0.23197497 -0.08706978 0.16718629 0.09541757 -0.088977434 -0.22609511 -0.1571624 0.047649004 0.0017658554 0.047412984 0.19235216 -0.042634193 0.052118003 0.11547222 0.30605072 -0.14319572 -0.016701676 -0.21521561 -0.32179993 0.045993924 0.20393461 0.07754156 0.08876731 0.0012407892 -0.038454957 -0.36618787 -0.032335326 0.3295866 -0.094228074 -0.2225503 -0.17228743 -0.021023016 -0.13493004 0.039274085 0.1950473 0.21812075 -0.054226656 -0.23507221 -0.30400512 0.11323326 0.37219036 0.47854808 0.23405708 0.063245565 0.13790193 -0.034655165 -0.19739954 -0.017764483 0.067962475 -0.07639873 -0.19185087 -0.063440345 0.13577229
/transportation/bridge/bridge_type 0.17808823 -0.14600486 -0.03053427 -0.11301169 -0.14071791 0.020566134 -0.036503308 0.13291463 0.1278608 0.008360147 -0.16618021 -0.059896078 0.007508681 -0.062418696 0.16907264 -0.056025818 -0.13306305 -0.12696114 -0.07888401 0.05343592 -0.095910154 0.015353147 0.11862107 -0.1156407 -0.15573889 0.024274778 -0.10442367 -0.103827596 -0.061554056 0.015283209 -0.029925965 -0.10053987 0.055749252 -0.07425169 0.06497982 0.03814851 -0.042416867 -0.084314905 0.14876804 0.058049023 -0.11056736 0.095365986 0.11772105 -0.11137283 0.09026672 -0.06646161 0.11800876 0.029739453 0.09905855 0.051147353 0.04665064 -0.05707661 0.0011157192 -0.0918259 -0.15374464 -0.0442766 0.050485644 0.049108528 0.12274876 0.054938294 0.17869401 0.0043003154 -0.037345234 -0.12765492 -0.1387109 0.12317693 -0.08041264 -0.063519076 0.0993984 -0.07851852 -0.060084935 -0.1798424 0.17756665 -0.091407485 0.10612461 -0.15581031 -0.15646085 -0.14675218 -0.14914729 0.05176602 -0.072716154 -0.0036234166 -0.045014568 0.1037019 -0.04641572 -0.15309308 -0.13233756 -0.11162958 0.03985275 -0.0786892 -0.024881167 -0.0154233705 -0.038234696 0.023772277 -0.1992915 0.016398752 -0.14634839 0.082682125 -0.015296931 -0.11156324
/geography/river/cities -0.119698465 0.116252296 -0.17250654 0.18477097 0.036238723 0.17189296 -0.09656183 -0.13539824 -0.14597829 -0.06504864 -0.023739874 -0.32168022 -0.018309234 0.15160614 0.0018991488 -0.11014455 -0.12946428 -0.084658764 0.07118421 -0.012204132 -0.16034706 0.30437154 0.31018573 -0.07044346 -0.21969913 -0.092746176 0.037699327 -0.03563632 0.040162403 0.13494097 0.015100789 -0.23980278 -0.029525174 -0.1363496 0.22770959 0.09832394 0.12887813 -0.04940182 0.18133397 0.056209356 -0.054650526 0.0021349662 0.14181209 -0.10953913 0.041178647 -0.15916505 -0.10830166 0.16701224 -0.18099245 0.18696281 -0.17638129 0.0050292425 0.21059927 -0.11210673 1.4429903E-4 0.09075768 0.060449384 0.006401714 0.1365827 0.13732111 -0.0047922125 -0.12887444 -0.06605115 -0.10772154 0.16203392 -0.0524025 0.005067738 0.006451832 0.1319372 0.12026557 0.09908898 -0.03632578 -0.00357695 0.010891404 0.18630935 -0.1100011 -0.0018563446 0.2861917 0.06578374 0.138872 -0.06566771 0.10878068 0.06645038 -0.10299787 0.08991481 0.22939938 -0.01595482 0.248024 -0.15825857 0.06944693 -0.19442782 -0.066316724 0.26806775 -0.18911192 0.06578284 0.040135358 -0.1895851 -0.08972938 0.059805345 -0.04618305
/government/governmental_jurisdiction/government_bodies -0.015679002 0.112887196 -0.037927035 0.24115272 -0.033029925 -0.10818415 0.034051232 0.05084442 0.021835767 -0.042694543 -0.20144336 0.3162559 -0.054807138 -0.005451371 -0.07121153 -0.180595 -0.015269063 0.101113714 -0.107738115 -0.022654017 0.12235874 -0.002507973 0.04478339 -0.08538371 -0.06420403 -0.053530157 -0.17776038 -0.15565155 0.20906517 -0.1252588 -0.09304398 0.01628785 -0.054764003 -0.23851243 -0.20030014 0.048439953 0.010302358 -0.073797934 0.076507345 0.17351462 0.09821282 -0.0029547617 -0.08397236 0.053507786 -0.053721856 0.11476718 0.023886576 -0.046879567 0.0445608 -0.1585717 0.10161882 0.017841699 0.08207756 0.08844271 -0.13623804 0.15059151 0.10069425 0.14993303 0.046537388 0.12642118 -0.0210683 -0.023178516 0.0953313 0.21436988 0.095700264 0.005959629 0.010749058 0.16196969 -0.055318713 -0.09973413 0.098669 0.10859098 -0.013377328 0.016695488 0.048618417 -0.04878219 0.036504127 0.053089563 0.25809076 -0.06962332 0.03829172 0.112526536 0.085170195 0.18112493 -0.06446104 0.041876778 0.014318682 0.043546934 0.1396593 0.05998592 0.14732234 0.092228346 -0.04719335 0.18999356 0.05800978 0.1433116 0.08145367 0.108006634 0.10115304 0.112708844
/film/film/release_date_s./film/film_regional_release_date/film_release_region -0.798663 1.8089129 -0.55981743 -1.0680481 -0.4319728 -0.3131811 -0.30355495 -0.08693808 0.19838709 -0.31703514 0.32037696 0.15703441 -0.76174897 -0.56168675 0.43264285 -0.15402149 0.26782823 -0.86003846 -0.54976434 -0.09443436 -0.080513254 0.3755035 -0.5569211 0.239614 0.55946153 -0.068793416 -0.985712 -0.1483663 -0.15125954 0.29925475 -0.2484333 -0.19758753 0.33699003 0.9575514 0.42529157 0.63971937 0.9980197 -0.13359521 -0.5170217 -0.14627941 0.22843987 0.05936375 -0.04987682 0.5576962 -0.54237705 -0.26739755 -0.25398958 -0.039977133 -0.35008782 0.9034289 -0.3791367 -0.06072017 -0.24997477 0.099118344 0.094825715 -0.16277458 -0.1104322 -0.842 1.1325986 -0.77558076 0.776882 0.87957615 0.47697228 -0.29541838 0.06834981 -0.21395352 -0.2601067 -0.89206916 -0.0924864 0.26401857 -0.10919203 -0.008645322 0.65215784 -0.9472475 0.27953348 -0.8821192 0.21267374 0.05263646 0.5474609 -0.24867272 0.39243498 -1.0603321 0.15239234 -0.82780606 -0.5318044 0.42595682 -0.84377855 -0.5032133 -0.814252 0.6043098 -0.595103 -0.3780805 -0.51671374 -0.93619406 1.3075597 -1.0596813 -0.16649541 -0.113720916 0.48412564 -0.12866086
/film/film/starring./film/performance/character -0.12930334 0.27140403 0.059112746 0.008555069 0.14441521 -0.14718664 -0.1448591 -0.21792236 -0.025894973 -0.05755489 -0.053190812 0.07060317 0.042156275 0.19390784 0.14893045 0.0293031 0.044468075 -0.1515359 0.074616365 0.10262444 -0.08905127 0.18782091 0.12449912 0.20492947 -0.0077278893 -0.040956233 0.0014896615 -0.28170523 -0.116771385 0.45593995 0.46472296 0.1672743 -0.039650846 0.15803167 0.0045372793 -0.088655174 -0.06275412 0.013519257 -0.06515393 0.11501379 0.122018084 -0.020426303 -0.23212609 0.052672625 0.12275105 0.07756104 0.048397157 -0.003656764 -0.18784763 0.22887146 0.19778048 -0.110537164 -0.05778987 0.09673188 0.08754685 0.07514238 -0.113336794 -0.15042119 -0.043160245 -0.13248934 0.1627627 0.21828136 -0.13745095 -0.2695667 0.02731912 -0.23970446 0.04874366 -0.09964559 -0.07554212 -0.117053226 -0.24739327 -0.018699609 -0.043254416 0.102031864 -0.2953219 -0.19465174 0.17608596 -0.17798537 -0.04800058 -0.056327164 -0.15915503 0.024632422 0.22169635 -0.13791649 -0.09826207 0.04595235 -0.3466678 -0.10707105 0.06746888 -0.31278363 -0.10515565 -0.12738347 -0.21844526 -0.05698438 0.23730394 0.21016881 -0.1626455 0.052462444 0.10338904 0.030422071
/soccer/football_player/current_team./soccer/football_roster_position/position 0.05131742 0.018542016 -0.032511424 0.04433312 -0.14594735 -0.100440525 -0.026272098 0.11345683 0.25895238 -0.11906213 -0.00903323 0.07473128 0.11879014 0.08935201 -0.008026858 -0.117378734 -0.08101448 0.3207031 -0.007864882 -0.2921203 0.099260345 -0.111122474 0.16118836 0.26127055 0.09651426 0.049310092 -0.031237548 -0.16325764 0.043808088 -0.08588869 0.046168953 0.12466734 0.10802039 0.10053605 -0.0685051 0.04241915 0.04645317 0.015441589 0.2011656 0.08990226 0.120929055 0.079258606 0.1720799 -0.3130001 -0.14896742 0.096743844 -0.057652753 0.15278827 0.053357624 -0.055311885 0.11688033 0.062237713 0.0010479117 -0.29840708 -0.20946468 0.1700568 0.055768102 -0.20229451 0.18017532 -0.05754883 -0.16756004 0.115586855 -0.14089608 0.046386097 0.010110725 -0.007931237 0.018404488 -0.049195826 -0.13273275 0.069078386 -0.023430653 -0.054417595 0.029333197 0.19815554 -0.0077441465 0.09449895 -0.027531456 -0.03304594 0.11809278 0.0061103017 0.09890094 -0.011496988 0.07472773 0.006758802 0.19951676 -0.16613269 -0.055093452 -0.13231076 -0.03282326 0.06986045 0.012196058 -0.018562052 0.098069906 -0.19648919 0.17960048 0.18161711 -0.026303504 0.14285618 0.022965143 0.06853076
/sports/sports_championship_event/champion -0.1799234 0.26524794 0.1195767 -0.09936594 -0.0024401238 0.09174194 -0.12594509 -0.01402931 0.0287216 -0.021642683 0.026538363 -0.043852203 0.1521243 0.08744349 0.054448612 -0.030414846 -0.097792275 -0.041003983 0.097386315 -0.06177831 0.09715233 -0.083916605 -0.09465499 -0.14556217 -0.1166476 0.065051 0.15428285 -0.06359106 0.001462577 -0.20436043 0.012466911 0.06219275 0.23919837 0.09947965 -0.04195286 -0.07705577 0.06667894 0.1752485 -0.06858242 0.08309178 -0.03857408 0.14327776 -0.28093943 0.2284155 0.054896373 -0.09710009 0.04704562 -0.018536402 0.21322568 0.0070403414 0.07065079 -0.12625842 -0.2979944 0.06255562 0.2943798 -0.23722719 0.10080905 -0.0022584575 0.058119874 -0.06883396 0.11980421 -0.18833385 -0.26559624 0.06768753 0.15404646 0.12814242 0.17877612 -4.0440593E-4 -0.059026986 -0.20551516 0.07882022 -0.2022301 -0.15599665 0.19799285 0.001154817 -0.117302984 -0.1385348 0.12796049 0.18528315 0.27568343 -0.018292846 -0.04733249 0.17188917 0.014424976 0.050049413 -0.10345444 0.045897778 -0.050591104 -0.07950943 0.08237149 0.1679449 0.036286343 -0.012484919 0.032633767 0.08952289 0.27997524 -0.11993463 -0.26834306 0.08047543 -0.12042237
/people/appointer/appointment_made./people/appointment/appointee 0.048105016 -0.11458456 -0.1622219 -0.0049458444 0.16653393 0.11168878 -0.07457656 -0.08421013 0.14162475 0.078266196 0.11311506 0.15914872 -0.15305896 -0.10720951 -0.1026177 -0.14904633 0.17643282 -0.05589653 0.02289373 -0.005117884 -0.11964832 -0.0055487794 -7.000175E-4 0.13292733 -0.012446433 0.022982555 -0.14554608 0.050526723 -0.11151573 0.08348764 -0.006992063 -0.049863387 0.05967078 0.11860002 -0.16177921 0.10031071 0.06616917 -0.12572165 0.07541382 -0.16686824 -0.016992118 0.13156174 0.09399423 0.07928906 0.025949072 0.14271979 -0.10032155 -0.14799118 0.09481212 -0.016143477 -0.05657245 -0.038742904 -0.12032319 -0.012847186 -0.08162931 -0.1532423 0.09283245 -0.06371942 -0.06722795 0.05024341 0.0080226455 0.043127127 -0.040669356 0.13769715 -0.009908803 -0.0983997 -0.05708533 -0.089891836 -0.0064134677 -0.029312775 0.012994428 0.13143164 0.07422746 -0.07415066 0.026889876 -0.10379451 0.15508783 0.14880106 0.13256882 -0.08130186 -0.028787585 0.04264506 -0.15926006 0.06558601 -0.13613194 0.13585395 0.04343265 -0.066261314 -0.15368514 -0.0938251 -0.0051399376 -0.13644832 0.15154566 -0.03841198 0.0891289 0.052843675 0.053481232 -0.13116431 0.117147185 -0.11707794
/base/popstra/celebrity/dated./base/popstra/dated/participant -6.8756007E-4 -0.0042674257 -0.010411592 -0.005006869 -6.8631035E-4 -0.001977312 -0.018174546 0.015414169 -0.0136400135 0.0104584135 -0.027360545 -0.032625467 0.012263303 0.00826198 -0.009391527 0.009450212 3.9261545E-4 0.0024995331 0.0025536483 0.0016376588 -0.019694284 0.017166954 -0.01247787 0.0017252542 0.010718393 -0.0027930771 0.017450867 -0.0049349903 0.0024294734 -0.0023530826 -0.0017496385 0.021729155 -0.011361373 0.018831983 0.004565792 0.013065762 -0.02135843 -0.027624104 0.03498714 -0.021321518 0.014173521 0.0071875285 0.022788431 0.022140065 -8.5806445E-4 0.0025146615 -0.0042475928 0.0013655246 -0.004163823 0.025256388 -0.02648281 -0.0026615274 0.010412554 2.9800876E-4 -0.026468284 -0.008030159 0.0022198977 -0.01570202 0.009354911 0.0332243 -0.0013174205 -0.015645301 -0.004686364 0.024397612 -0.01608833 0.017452616 -0.022114163 0.005947837 -0.0026580798 -0.024282487 0.0018933495 0.0107782995 -0.018235743 -0.009302167 -9.0182E-5 -0.008110166 -0.0076550455 -0.021163793 0.023729457 -0.0040253093 -0.006973837 0.030000359 0.011403086 -0.014348809 -0.015406497 -0.0096835615 -0.010736711 0.020136843 -0.009886093 -0.012679754 -0.0024119758 -0.01589341 0.0020666707 -0.014644372 0.013910864 -0.0010052673 0.00914225 -0.008119087 -0.0126976315 -0.017433845
/geography/geographical_feature/category 0.13532805 0.09254683 0.12702014 0.10420817 -0.13594843 -0.10482972 -0.16241345 -0.10536948 0.12530054 -0.15300907 -0.13051276 0.09605449 0.24508354 -0.20463449 0.0840362 0.02858934 0.2088939 0.06298576 0.058223024 -0.07258201 -0.11317164 -0.036002122 0.1174295 0.17044698 0.05912897 -0.080663085 -0.04725476 0.12649055 -0.06179069 -0.14170954 -0.058127727 0.08637668 -0.12408392 -0.15277342 -0.11755884 0.15068331 -0.13207182 0.10151931 0.13101946 -0.073383585 -0.05223254 -0.15968487 -0.037107017 0.11970485 0.08261784 0.011110722 0.051693294 -0.03476296 0.072966866 0.07246063 -0.076883614 0.08560445 -0.06866993 0.12302312 -0.048467778 0.02823482 -0.0035817395 0.14705236 -0.1443068 -0.09989776 0.11168011 0.15641063 -0.10768376 -0.06409552 -5.74938E-4 0.21371862 -0.03963091 -0.040197983 0.07175197 -0.082377344 -0.10793359 0.06857108 0.0411842 -0.16863653 0.072135955 -0.06809432 -0.012564215 -0.06390711 -0.08999285 -0.103686646 -0.008262645 -0.16330089 0.16972123 0.037667353 -0.097019725 -0.0566946 0.11168942 -0.09676833 -0.042847935 -0.19532615 0.18555568 0.09518544 0.022189299 0.058029745 -0.12819485 -0.13133694 -0.03688182 -0.033830546 -0.163908 -0.0644864
/cvg/computer_videogame/game_series 0.04014396 0.0037405207 0.027054207 0.04536464 -0.024570473 0.12339996 0.13603126 -0.1375835 -0.038998015 0.11988214 -0.14716083 -0.0034503543 0.06941243 0.07807442 0.095604375 0.13304776 -0.16125365 -0.015112297 0.060278036 -0.06591203 0.028879546 -0.14898065 0.14539582 -0.13425088 -0.15669781 0.03581191 -0.12448456 -0.12003999 -0.13994628 0.088739015 -0.092551135 0.10263854 -0.041983984 -0.051718783 0.09894758 0.056055512 0.05130522 -0.10388804 -0.14960535 -0.14474288 -0.016939888 -0.14046825 -0.0012932493 0.10525741 0.012455484 -0.102496 0.13733795 -0.08924398 -0.053847138 -0.13156922 -0.15519617 0.020122016 0.087894656 0.09168955 0.1263845 -0.14606877 -0.11235896 -0.16222706 0.08770395 0.13914746 -0.13716663 -0.08873859 -0.053324264 0.16527049 0.012017905 -0.13243869 -0.047630988 0.05738283 -0.096942924 0.051063698 0.07327019 0.023543445 -0.04912538 -0.11170201 0.09683796 0.06399051 0.026669526 -0.0537356 0.0074516973 -0.14257123 -0.11147654 0.06367686 -0.028772255 0.026042698 -0.14533198 0.012541572 0.1391492 -0.14707321 -0.03533261 0.1459977 -0.04839128 -0.018646065 0.021159232 -0.087341495 0.03154428 -0.069713995 -0.06849505 0.12494502 0.16772734 -0.11402898
/cvg/game_voice_actor/computer_game_voice_performances./cvg/game_performance/character -0.075946 0.11059714 0.07641339 -0.15102012 0.09464506 0.14284092 -0.048093416 -0.0045713107 -0.10576601 -0.13667399 0.079911344 -0.09639773 -0.12029312 -0.002897132 0.10126265 -0.11473558 0.07522953 0.048290998 0.08642433 -0.018047445 -0.027069291 0.025541676 -0.022243805 -0.02431217 -0.08869445 -0.12616819 0.06610782 0.11849413 0.058224693 -0.1605733 -4.1853427E-4 0.026672186 -0.053399872 0.11841891 0.124878906 0.0019643172 -0.12413122 0.12698857 0.032127105 -0.15660466 -0.033116262 -0.1384849 -0.039438855 -0.09949857 -0.15223767 0.12847538 0.15914123 -0.1557174 -0.07438682 -0.14780636 -0.11826382 0.16249992 -0.093653254 -0.018588217 0.009591911 0.11562019 0.14049019 0.019430218 -0.06914736 0.11575093 -0.023675174 0.024195358 0.017351026 0.14775392 -0.09756167 0.009672699 -0.053912986 -0.033429913 -0.043347385 -0.15684342 0.13261941 0.10398154 0.10684911 -0.13591549 -0.08738003 0.06799812 -0.009611159 -0.10071678 -0.07705197 0.06603782 0.046110027 -0.13016286 -0.15529491 0.00934767 0.0873177 -0.0860143 -0.105663344 0.10328805 -0.1586977 -0.076303676 -0.15931877 -0.020910397 0.0040728874 -0.12873009 -0.14127396 0.061231446 -0.16741289 0.12366853 -0.0078540025 -0.02190127
/government/governmental_jurisdiction/governing_officials./government/government_position_held/appointed_by -0.07362934 0.064005196 -0.021663949 0.030912038 0.37875125 0.11035812 -0.019651555 -0.12079095 -0.14674406 -0.15589455 -0.2472458 0.12887546 0.120798804 0.104016826 -0.09602935 -0.023551295 0.031718016 0.05452915 0.2605969 0.15083845 0.06800594 -0.21053647 -0.10841881 -0.06899094 0.15967597 0.0036266586 -0.09954768 -0.02271387 0.11371159 -0.14641666 0.072700724 0.027849311 0.026335381 -0.070798725 -0.033320565 -0.3819864 -0.05544544 0.09823649 -0.24631968 0.13961719 -0.013528994 -0.22515486 -0.070685185 0.26115078 0.26110446 -0.06737559 0.10958826 0.19900611 -0.08042878 -0.14153592 0.028793879 0.038574863 -0.039246287 -0.21441886 0.16684464 0.19376847 0.12520242 -0.0649367 0.01662653 0.024642587 0.19488136 -0.049426086 -0.1272727 0.08043824 0.12232237 0.07057083 -0.25638106 0.17168206 0.14144851 0.025054494 0.21459547 -0.08157928 0.13124959 -0.043843735 -0.24454202 0.038558263 0.030384667 0.01751394 0.17136624 0.2963642 0.023533896 -0.07139784 -0.015636684 -0.041398466 0.17018312 0.102401674 0.11557082 0.018425936 0.2681285 -0.1249729 0.10640392 -0.17323074 0.2154297 0.27889332 -0.17863917 0.18391533 0.098343305 0.002413338 -0.12803389 0.029593496
/tv/non_character_role/tv_regular_personal_appearances./tv/tv_regular_personal_appearance/person 0.002741377 0.17170027 0.09123011 -0.10226587 0.13239752 0.19325921 -0.12723476 -0.46491832 -0.28131834 0.00612867 -0.07647636 0.21440049 0.32321522 0.0066273035 0.19207957 -0.06916946 -0.36073118 0.114325464 -0.016246647 0.40452915 0.07459785 0.27873743 -0.05120778 -0.24630353 0.59016466 0.05367146 0.2249525 -0.0486974 0.41870743 -0.10155595 -0.1741168 -0.100980565 0.32573467 0.22625351 0.32754198 -0.10378696 0.05015963 -0.16511199 0.0029189638 0.0991993 0.35555357 -0.034999188 0.1625683 0.054599557 0.10972512 -0.014455015 -0.21348882 0.26128757 -0.013435496 -0.23268759 -0.069920234 0.10777242 0.14139198 -0.009971288 0.14690864 0.11055972 -0.022272589 -0.08692723 -0.11952025 -0.0069566555 -0.06714366 -0.31558257 0.1776397 -0.0049837115 0.17621443 0.24224447 -0.095933065 -0.055380527 -0.17048354 -0.16670986 -0.13004275 0.052294027 0.32879898 -0.13669594 -0.36165306 0.1629873 0.14766952 -0.03534956 0.08357042 -0.013376218 -0.02579395 -0.17869274 -0.16798675 0.037272576 0.1670194 0.35212913 -0.10057288 -0.31802857 -0.5233326 -0.28633958 -0.07450092 0.039689187 0.023102788 -0.046111222 -4.532953E-4 0.04981906 0.027425954 0.20138586 -0.023243511 -0.01536243
/music/artist/track_contributions./music/track_contribution/role -0.44952926 -0.06865281 0.40374923 -0.0030328135 -0.22566126 0.013571929 0.43067613 0.07658924 0.258426 0.41503108 -0.48063883 -0.39176026 -0.55429256 -0.4049054 -0.128175 0.034312196 -0.25133806 -0.22989793 -0.52801436 -0.78781205 0.11301843 -0.06394813 -0.46418238 -0.07781165 -0.5818684 0.6862369 0.41243055 -0.19683272 0.089355305 -0.052182786 -0.21564193 0.41325408 0.3487497 0.33202663 0.44972926 0.5589508 -0.22213438 -0.14745402 0.18657248 0.31935135 -0.70814127 0.6722959 -0.589913 -0.6567363 -0.66649556 0.08577634 -0.18975326 0.11918295 0.6259268 0.53652894 -0.37878776 0.010508926 -0.20253469 -0.21669234 -0.06882932 0.52652955 -0.053713948 -0.14696845 0.18958268 0.3047067 -0.06058134 0.035419352 -0.2975537 -0.22248037 -0.12680545 0.091657475 -0.0062250015 0.18927854 -0.043968603 -0.17282589 8.555548E-4 0.22481088 -0.5689271 0.05791457 -0.12532192 -0.112342544 0.43045947 0.4109928 0.07537773 -0.728816 0.4311804 0.39973566 0.37717468 0.08527323 -0.17264006 -0.06346452 -0.23673171 0.41845483 0.31541625 0.09117719 0.53009784 0.016704107 -0.70721763 -0.091756195 -0.05004176 0.25857574 -0.27591985 -0.4534002 -0.32693988 0.77344245
/olympics/olympic_participating_country/athletes./olympics/olympic_athlete_affiliation/olympics 0.059538607 -0.40908334 -0.1586767 0.3782405 -0.293662 -0.063593924 0.19999585 0.17225221 -0.33855528 0.1877689 -0.13313554 0.043311715 -0.19317229 -0.048455853 -0.106660746 0.07330391 -0.2376552 0.6002785 0.16388407 0.012002627 0.29957616 -0.31556296 -0.011686225 0.13464664 0.082273476 -0.38763532 0.25503817 0.060585484 -0.08803757 0.15438345 0.004359845 0.027967542 -0.29775536 -0.24078538 -0.23119754 -0.34655344 -0.05768921 0.30669495 0.24790442 0.15926115 0.45877302 0.25038445 -0.017230956 0.07671973 0.15184413 0.15958597 -0.053768467 -0.050311342 -0.105337046 0.08012746 0.13913456 -0.14568827 0.27827105 0.19893119 0.13895145 0.2072088 0.15606268 0.37842566 -0.33033183 -0.08927673 0.022379674 -0.078854546 -0.28800654 0.11897434 0.0337779 -0.23302332 -0.10995736 0.5892888 0.28202048 -0.22886054 0.26181507 0.19351433 -0.2033611 -0.19478318 -0.15480602 0.25437936 0.0016954774 -0.071978 -0.058284666 -0.266431 -0.13967028 0.38680887 0.014935929 0.0634765 -0.31315434 -0.039739326 0.15621066 0.12109505 -0.06272232 -0.43331966 0.21050517 -0.06025416 0.31175143 -0.019124169 0.030699536 0.3588399 0.4039202 -0.04898976 -0.27876893 0.059215896
/music/musical_group/member./music/group_membership/role -0.14916867 -0.08213456 -0.3255257 0.33382392 0.21630776 0.02884133 -0.04440557 -0.046549626 -0.032219797 -0.03231407 -0.36043304 -0.22459191 -0.20337726 -1.1059654 -0.11538156 0.15731438 -0.047270402 -0.3260939 -0.09223964 -0.3788832 0.101388 -0.11175362 -0.08183529 0.030987661 -0.63823414 0.6294831 0.50146633 -0.08358235 -0.1262755 0.099601276 -0.17465754 -0.41896826 0.40421003 0.4099372 0.3825187 0.30955136 -0.42497253 -0.056350403 -9.818238E-4 -0.24891393 -0.33659992 0.22705197 -0.31814006 0.22249487 0.38511607 0.045805115 0.13631037 -0.030609123 0.44793445 0.14684391 -0.17732204 0.06618581 0.007917877 -0.5524713 0.043495987 0.0063051614 -0.20176168 0.075268164 -0.11973192 -0.2154426 -0.08227924 0.74770564 0.046749778 0.06073542 0.40274823 -0.4101342 -0.33701435 -0.08053822 -0.185675 -0.10744843 -0.08096866 0.09688371 -0.08707956 -0.5111666 -0.2799709 0.0061303196 -0.5022507 0.08497956 -0.14514491 -0.38865635 0.41444492 0.056616064 0.03973792 -0.7095239 0.2852486 -0.059841137 -0.18539564 -0.24266677 0.5623302 -0.22016042 -0.08233838 0.06575035 0.023224952 0.10294117 -0.41848028 0.2706609 -0.48780614 -0.124919675 -0.7005772 -0.040558025
/transportation/road/end1./transportation/road_starting_point/location 0.13573946 0.15992172 -0.13113129 -0.09128321 -0.029251147 -0.036736324 -0.10706164 0.07578751 -0.15577796 0.100995116 -0.16956286 0.07091602 -0.030116707 -0.061428186 0.084567964 -0.07772588 -0.017380845 0.023683727 -0.07703396 -0.10018526 0.12256507 0.074133374 0.13757467 -0.076682106 -0.07020835 0.12356799 -0.024627032 -0.021184674 -0.04245806 -0.086739056 0.006826511 0.07763395 0.065901294 0.01960864 -0.042249687 0.056688976 -0.10165897 -0.026942773 0.06091146 0.12777373 0.107047215 0.06922648 0.016876733 -0.069226146 0.04204357 -0.0246026 -0.12822716 0.13161185 0.16448069 0.024501864 0.036173515 -0.07980146 0.05290174 -0.089053705 0.053196922 -0.07860722 -0.1729427 0.13394947 0.09846238 0.05370743 0.08508386 0.11367109 -0.11913978 0.010803023 -0.083772756 -0.11079987 0.069174215 0.16776396 -0.0060042883 -0.11377525 0.12705536 0.16391926 0.13140789 -0.12405985 0.1743557 -0.030853303 0.11074367 0.15577781 -0.15657131 -0.08462995 -0.08815616 0.026007997 0.016190447 -0.12960114 0.12541059 0.17378882 -0.16530736 -0.14064354 0.088904284 -0.07658305 -0.16134486 -0.047741104 -0.06436572 0.06838363 0.1394492 -0.02270735 0.11661719 -0.08646704 0.023254728 0.14022946
/base/x2010fifaworldcupsouthafrica/world_cup_squad/current_world_cup_squad./base/x2010fifaworldcupsouthafrica/current_world_cup_squad/current_club -0.24646623 -0.025318148 0.19168323 0.36887586 -0.11452746 -0.5288701 -0.18359171 -0.26918924 -0.157628 -0.022037655 0.38099638 0.15916158 0.25007364 -0.022774976 -0.10210728 0.08827766 0.09319147 0.052483376 -0.07123772 -0.09080761 -0.20904341 0.10150786 0.20252879 -0.11984182 0.094242714 0.057196025 0.21776909 -0.08341404 -0.021441637 -0.23675427 0.10748001 -0.36594263 0.41198227 0.22104283 -0.18542972 0.22968033 0.22535962 -0.22425343 0.22207376 0.13475934 -0.1695699 -0.3257509 -0.18407063 0.1357378 0.27189484 -0.22844592 -0.037215535 -0.063478045 0.24644263 0.047192246 0.19570547 0.01759218 -0.09320685 -0.23744763 0.1763967 -0.13349935 0.36237133 -0.0020152037 0.35295528 -0.0663473 -0.47936115 -0.065850325 -0.09176669 0.42459232 -0.15063736 0.23448907 0.18232122 0.14440134 0.168875 -0.20055419 0.24921891 -0.25369447 -0.25357956 0.13551413 -0.0014308483 -0.23906596 -0.15306213 -0.014482464 0.38058016 -0.23938219 -0.11783692 -0.038721327 -0.2739152 -0.0077489726 -0.5784928 0.4512505 -0.21092062 -0.25676292 -0.17309083 0.2190827 0.69084156 -0.35163003 -0.18692034 -0.20809263 -0.36042738 -0.11255113 0.3655319 0.09740049 0.16944523 -0.12647998
/computer/programming_language/language_paradigms 0.06284644 -0.005896739 -0.032142468 -0.02821271 0.14069213 0.10300778 0.049316306 -0.011066047 -0.13953902 0.10684627 0.08583971 0.21796213 -0.18691406 0.04680304 0.12293522 -0.18609348 -0.11066806 0.10915755 0.22831456 0.0023251208 0.18893008 0.058736645 -0.01665787 0.15524532 -0.22581133 0.0741108 -0.14738391 -0.03658991 -0.054597475 -0.11625719 0.15226766 -0.06221825 -0.049609285 -0.22888598 0.09609543 -0.11126406 0.2396391 -0.1870993 0.022906821 -0.0043979976 0.08990664 0.18773793 -0.0020622064 0.3006445 9.2027953E-4 -0.0108924825 0.12699668 0.12500559 -0.0066264262 -0.16211085 -0.050232563 -0.30298406 0.011213094 -0.008314068 0.056979697 0.051565073 -0.0018211054 -0.16059896 0.05751487 -0.18939446 0.15892634 0.025456153 -0.06497782 -0.011867924 0.022757068 -0.17899261 0.082954 0.10938085 0.025663434 -0.02554214 0.17871618 -0.12898873 -0.075164154 -0.11975283 -0.23287185 0.0380595 -0.03175943 -0.0030862081 0.049141023 0.021305358 0.064025626 0.095725305 0.029076137 -0.16420202 0.033375055 -0.057245526 0.013875518 0.094816364 -0.028583823 -0.06803096 0.12625234 -0.23570807 -0.056860372 -0.15970631 0.10145389 0.04993333 -0.22515886 -0.06312722 0.13361979 0.050634876
/location/statistical_region/rent50_4./measurement_unit/dated_money_value/currency 0.09506964 -0.081300795 -0.08193674 0.34719998 0.23151632 0.32093972 -0.09435902 -0.19166823 0.10650023 0.5559042 -0.10783352 -0.079119235 0.10023435 -0.041079856 -0.32588154 -0.08175024 0.7789149 -0.3571273 0.07605447 0.06187598 -0.28765246 -0.26606402 -0.21178377 0.06125808 0.06517518 -0.20340823 -0.09413634 0.060148623 0.49842352 0.14727233 -0.28029576 0.027415909 -0.08257941 -0.16197814 -0.298383 -0.07439695 0.14970599 -0.058544245 0.14127462 0.15026242 -0.162046 0.17671736 0.13802117 0.30013645 0.24260868 0.34864786 -0.51734227 -0.51283413 0.17915285 -0.34637022 -0.38028717 0.042492468 -0.007853434 -0.082203716 -0.0028028775 0.006292228 -0.014451179 -0.47425956 -0.025209824 0.08124969 -0.31750482 -0.44533047 -0.29807416 0.12641579 -0.3380305 0.09557992 0.057370745 -0.2877104 -0.2898981 0.19444852 -0.1401456 0.2087284 -0.024827497 -0.6006516 0.082745746 0.13913384 -0.21011204 -0.20760693 0.11961028 -0.029530477 -0.45897925 0.2652188 -0.48752668 0.003748215 0.054793805 -0.28216556 0.037569437 -0.015202791 -0.3247243 0.19517632 7.6443667E-4 0.16300878 0.083593376 0.10997297 -0.07480836 -0.14216967 -0.52463526 0.016554723 0.5150778 -0.17119241
/media_common/literary_genre/books_in_this_genre -0.04140299 0.12852237 -0.108578466 0.024656665 0.10492482 -0.13772641 0.12301537 0.2110894 0.095903106 0.05817244 -0.028969266 -0.020866105 0.08559277 0.025868163 -0.031034471 0.11569745 -0.15774134 0.13351618 -0.06051302 -0.044030145 -0.15448482 0.08257527 -0.16818069 -0.14396387 0.21495155 0.12139481 0.09959393 0.14367129 0.09503203 -0.14585853 -0.0086166635 0.02262519 0.12419689 0.04466846 0.113810696 0.0035195008 -0.1363166 0.22109303 0.015765795 0.057910345 0.010198631 -0.013855245 -0.12427473 0.065331146 0.05657436 0.04355362 0.10382617 -0.09779881 0.05017167 0.043772638 0.04676825 -0.023444988 0.09118923 0.027296022 -0.03512189 0.075213924 -0.16776061 -0.17915748 0.013528234 0.06357803 -0.12297144 0.03297609 -0.0053735906 -0.033281777 -0.03353431 0.0749327 0.05262119 0.065452665 0.20635483 0.0820346 0.0751213 -0.1493272 0.05865059 0.15028985 0.09210929 -0.0370548 -0.16815619 -0.10004475 -0.11110432 0.054031845 0.07026442 0.14075719 -0.08984534 -0.029945582 0.12096512 -0.16407837 0.10055196 0.07394587 -0.11506889 0.16954918 0.098117396 -0.13388318 0.1429911 -0.13157476 -0.10555708 0.18363896 -0.086248666 0.028040271 0.051291425 -0.12363752
/user/alexbl/honorary_title/titled_person/honorary_title./user/alexbl/honorary_title/honorary_title_holding/honorary_title -0.026098715 -0.108146995 -0.3389323 0.050883308 -0.010294352 0.17574228 0.062736526 0.14802535 0.27243116 0.0014094093 0.18030567 -0.030119123 0.086969875 0.230981 0.1533021 0.24279317 0.028894236 -0.038166545 -0.04442581 -0.31338015 0.21946189 0.039076775 0.29679564 -0.29203323 -0.15278715 -0.13924831 0.01869209 0.13732484 0.01747527 0.036138237 -0.19137043 -0.01571522 0.094488986 0.31083706 -0.32390398 0.101780206 0.16382708 0.093622535 0.2022377 -0.09452273 -0.14411336 0.29496354 0.09744407 0.004864705 0.032999475 0.044050552 0.06845027 0.027236652 -0.10119443 0.058202244 -0.09083029 0.037986975 -0.07613224 -0.1251998 0.1465394 0.02960595 -0.011045232 0.230172 -0.015157508 0.04465757 -0.22859344 0.28049597 -0.030330991 -0.23137155 -0.10126815 0.17587341 0.18104982 0.005294 -0.15599297 0.024389792 -0.13811582 -0.06716223 0.14223383 -0.11875375 0.20869094 -0.14462365 -0.14127706 0.02011124 0.12582712 0.07492844 0.2169033 -0.04241604 -0.19786748 0.2852758 -0.27258733 0.106158085 -0.066288084 -0.25556242 -0.035773598 0.04278383 -0.040762715 0.021626992 0.14268431 -0.115269944 -0.0022927988 0.018506233 -0.14487773 -0.19035183 -0.15698259 0.0015964514
/education/field_of_study/students_majoring./education/education/specialization -0.23859744 0.023112874 -0.17402463 0.10831783 0.11900007 -0.14620589 0.030904554 -0.007949877 -0.030352665 -0.12080605 -0.17273225 -0.02612081 -0.10912806 0.03944506 -0.0949754 -0.037264667 0.10519535 -0.023920627 0.03300491 0.16727634 0.03524141 -0.15821582 -0.07816356 -0.043055452 -0.072736576 -0.056165043 0.16777578 -0.020643929 -0.03136636 -0.07717063 -0.09106747 0.043319758 0.17715904 0.04039945 0.097020894 -0.09626082 -0.2215566 -0.049757726 0.16142054 0.05689236 -0.098840095 -0.040916044 -0.02441439 -0.07817521 -0.21377069 0.035073675 0.03825448 0.09672246 0.07895005 0.09077145 0.06554538 0.17525674 0.03569748 0.03395049 -0.10095806 0.0053435494 0.027729651 0.027207896 -0.1936476 0.11445904 -0.039169606 -0.07045593 -0.042476833 -0.13284457 -0.021482818 4.4160406E-4 -0.06658055 0.058606107 0.04499485 -5.5410503E-4 0.03807742 0.07454702 0.107266665 0.064306654 -0.05818856 -0.049681958 0.06322272 -0.04952491 0.191429 -0.07607351 0.11673159 0.029490123 0.092603974 -0.062533386 0.005853464 0.0014339688 0.07577623 0.14500318 -0.11364309 -0.13520856 0.05706876 0.18293837 -0.12608187 0.0831147 -0.055284966 -0.1290486 -0.08605441 -0.13425012 0.06638871 -0.048222914
/medicine/type_of_infectious_agent/diseases 0.150129 -0.036214314 -0.053984486 -0.21439053 0.047710538 -0.10879541 0.060754582 0.01895618 0.013678958 0.09853951 0.09281877 -0.023770945 -0.18612681 -0.11795702 0.048277248 -0.060566366 -9.5668674E-4 -0.053148918 0.07184185 0.1363714 0.087773375 0.1343799 0.13031247 0.019833146 -0.18405335 -0.029675053 -0.010996087 -0.13770175 -0.05202901 0.06583748 0.20921142 -0.01454463 -0.09765543 -0.16704948 -0.13203038 -0.09756811 0.068007484 -0.085563876 -0.0029053255 0.020846562 -0.08633342 -0.12722246 0.1390751 -0.05797662 -0.06835459 0.053268496 -0.16179122 -0.09740856 0.16020665 -0.061774544 -0.1317641 0.1955346 -0.17838098 0.109339915 -0.11010671 0.031663295 0.11441743 0.062116332 -0.004513511 0.070966445 -0.09698727 -0.06998968 0.011843851 -0.23294333 0.04496582 0.10956535 -0.043859925 0.060052887 -0.06238248 -0.07693699 -0.034252428 0.100090444 -0.00944218 0.11355219 -0.16260651 -0.052893095 -0.08820024 -0.10516068 -0.09355383 -0.10672957 0.17259681 -0.16584133 -0.1401841 0.14510095 -0.059616245 -0.011930958 0.053633224 -0.118074216 0.14553624 0.079046674 0.14288776 -0.05073356 -0.10888971 0.10602278 -0.015083473 0.0051705316 0.075343676 -0.09816613 -0.04024925 0.15774721
/sports/sports_position/players./sports/sports_team_roster/position -0.0022210332 0.052839145 0.09446106 -0.049675908 -0.0019689521 0.13049738 -0.004694325 -0.105511256 -0.086981714 0.02367519 0.10298856 -0.07984212 -0.028429478 -0.03049267 -0.09068348 0.060556687 0.08646471 0.123110004 -0.015250108 -0.016946875 0.05104539 0.09813376 -0.078533255 -0.09268476 0.045088895 0.04885864 0.11378597 -0.004823677 -0.016351296 -0.050817356 -0.03627678 0.16773637 -0.11239325 0.065274596 0.035677914 -0.008598269 0.13830914 -0.048032288 0.050135758 0.06380247 0.0370584 0.10809802 0.14180414 -0.02795614 -0.14491862 0.01623333 -0.0059558437 -0.12337263 0.09938241 0.0491891 -0.006759451 -0.014807286 -0.065239325 0.10019107 4.4714336E-4 -0.1174651 -0.09949367 -0.022983776 -0.008117821 -0.039167047 -0.007239538 -0.16542277 -0.06523301 -0.07062115 -0.09636347 0.10611095 -0.13540967 0.032654896 0.042635415 0.07528218 0.0025635357 -0.15373467 -0.07832752 0.030559162 0.065592766 -0.15984994 0.10756377 -0.064902246 -0.036721114 0.045087747 -0.14357616 -0.024162682 0.13127942 -0.007637874 -0.024712335 -0.07358058 -0.11169619 -0.061111435 -0.07122105 0.07328582 -0.097871065 0.09311685 -0.049570754 -0.1453431 0.06850548 -0.07529196 -0.09164038 -0.073074795 -0.105340324 0.07196329
/common/annotation_category/annotations./common/webpage/topic 0.65769356 0.097381204 0.5717131 -0.4534783 0.52752626 0.053439043 -0.43524897 0.9153162 -0.30575266 0.5936511 0.39625603 0.2018922 0.3814073 0.86147875 0.17559454 -0.2641576 1.0189399 -0.33084515 0.020542787 0.04966121 -0.030716447 1.0444138 -0.2665119 -0.29922235 0.12908994 -1.1136302 -0.1480094 -0.704053 0.54957694 -0.44309032 -0.12264544 0.12241337 -0.34122244 -0.1554472 0.3528202 -0.2292951 -0.4727893 -0.14498924 -0.12508217 -0.1306568 -0.034827765 -0.034148663 -0.26344034 -0.2868796 0.16438766 -0.11256293 -0.2274726 0.9719391 -0.35689127 0.42037392 -0.2425499 1.287363 0.5992801 0.7570836 0.19373058 -0.22616147 -0.5001504 -0.24373029 0.24227406 -0.073894694 -0.49427426 -0.2263575 -0.9054257 0.4804722 -0.7427184 -0.24551567 0.32128257 0.17574993 -0.09187173 -0.33501852 -0.36298275 0.16908422 0.37183118 0.043236356 0.33234665 -0.19217442 0.063573025 -0.12797365 0.5953523 0.059712954 -1.5979174 -0.5262171 -1.357333 0.20942633 -0.11413429 1.0014868 0.29453227 0.28225675 0.03803576 0.8417124 0.109550774 -0.3148418 0.25200278 -0.61058503 0.29532617 -0.28414425 0.57010347 -0.25728914 0.3676516 -0.016155345
/base/popstra/celebrity/vacations_in./base/popstra/vacation_choice/location -0.6036372 0.12905177 0.389428 0.049408082 -0.45491284 -0.1550371 0.021165073 0.4472862 0.21114069 -0.19620228 0.08573633 -0.27258044 -0.31083116 0.35991323 -0.30900222 0.10255179 0.18275478 -0.13552362 -0.16946957 -0.38483357 0.035052788 0.22404745 0.5446454 -0.04460592 -0.50962263 0.2520052 -0.42955515 0.08712898 -0.5686887 -0.2671817 -0.09869657 -0.37379265 0.12168371 0.0012986404 0.36677417 0.49832264 0.20693143 0.12427967 0.31087357 0.10178941 -0.34155017 0.15147647 -0.1579604 0.5328643 -0.09713404 -0.38007647 -0.014565393 0.17320617 -0.25567302 0.051325243 -0.12335262 -0.06913523 -0.2610675 -0.08334962 0.24784052 -0.47286087 0.06613322 0.09938602 0.09527301 0.45864806 -0.10247195 0.388344 0.30464417 -0.17773215 -0.27942234 0.14424174 0.5170421 -0.3558871 -0.3761336 -0.010335759 0.25588694 0.019629974 -0.055083275 0.2868893 0.46014586 -0.043705437 -0.31317464 0.4198918 0.21832317 0.2824507 -0.004188427 0.3971073 0.48607454 -0.06385311 -0.006028221 -0.06452749 -0.17551076 0.07075419 -0.5083971 0.5213291 -0.0039686044 0.48025167 -0.3706831 -0.5670246 0.31210983 -0.54285896 -0.11548308 -0.15570138 -0.079425 0.16111876
/business/board_member/organization_board_memberships./organization/organization_board_membership/role -0.14209831 -0.043684226 0.044648197 -0.14184365 -0.14527035 0.009373587 0.0839541 0.09639411 0.030211767 -0.15213683 -0.0320637 -0.08037815 0.06919962 -0.087139755 0.13090299 0.054328114 0.030187255 0.08168077 -0.030669734 0.16491023 -0.09759068 -0.13775262 0.16683675 -0.009661747 -0.003179567 -0.050181314 -0.040841922 -0.05208877 0.012705471 -0.016159382 -0.1526828 0.061260972 0.17104137 -0.061912794 -0.1433508 -0.061486136 -0.028325897 -0.08425984 0.17904896 -0.010405363 0.03596371 -0.19113876 -0.040651783 -0.15782678 -0.008754974 0.15431078 -0.0067135813 0.15129296 -0.08567154 -0.053287752 -0.0637098 -0.17971075 0.022465201 -0.04388213 -0.015988022 -0.15932329 -0.0505615 -0.11004175 0.0462035 0.028540328 0.109610885 -0.12901223 0.15745012 -0.019854967 -0.06132129 -0.019045703 0.1153894 -0.18891926 0.13028926 -0.011433705 -0.13196342 0.038673412 -0.14323373 0.027146386 -0.1025575 0.03179667 0.009687766 0.014029115 -0.027833667 0.022970721 0.12170465 0.17881621 -0.007023852 -0.15550968 -0.1300141 -0.17272547 -0.06245504 0.0800942 -0.0048593525 0.030430427 0.14160384 -0.043807484 -0.04622617 0.03652816 0.10440947 -0.10834991 -0.21356058 0.10924041 0.07404603 0.15438513
/location/country/first_level_divisions 0.03328871 -0.058696035 0.0072739827 -0.04174216 -0.06437841 -0.00834587 0.020369323 -0.10797299 0.06890253 -0.21880569 -0.007494634 0.04482414 -0.10454538 0.25913942 0.06932316 -0.08333444 0.036290564 0.059509974 0.17953815 -0.0969224 -0.05048402 0.19157496 0.11053335 -0.043474525 -0.11492401 0.032877807 -0.022281151 -0.0475817 0.24433134 0.06659562 0.09538533 -0.028182767 -0.008897414 0.07471082 -0.15541247 -0.07977661 -0.2259833 0.12705688 0.08468087 0.001605192 0.13449258 0.23427443 0.14674766 0.13811456 -0.18627979 0.0173877 -0.013425162 0.2767879 -0.0011864166 -0.06491391 0.00877195 -0.13204595 -0.036174044 -0.06973736 -0.011987509 0.005855332 0.06237562 0.2577461 -0.19367892 0.10192767 -0.13372079 -0.063160606 0.09849724 -0.024659848 -0.10264248 0.028468814 0.09205488 0.10629105 -0.0914157 -0.068637565 -0.03244908 -0.14348169 -0.18508615 0.28036457 -0.060521223 0.13895439 0.2534313 0.23412682 -0.13760245 -0.088810004 -0.042993523 0.0497676 0.092064135 0.029011855 0.028577095 -0.1217247 -0.027308842 0.058804534 -0.0685613 -0.2068909 0.08923009 0.03795009 0.27972895 0.090998806 2.7636735E-4 0.12779145 0.06570036 -0.25336054 0.010356294 -0.011809359
/tv/tv_producer_type/tv_producers_of_this_type./tv/tv_producer_term/program 0.43071964 -0.1585173 0.0046209255 0.20573664 0.25145322 -0.066384174 -0.042287752 0.16214046 0.2129395 0.007981042 0.18733253 -0.10990314 -0.10594219 0.21189027 -0.10235988 0.055671647 0.09810468 -0.096186616 -0.12504208 0.07156228 -0.15154994 0.09047885 0.13324597 0.03981243 -0.110291444 0.28174174 0.39587426 -0.05359243 -0.009231206 0.17743114 0.20605059 0.36986566 -0.23051962 0.069278896 -0.10994477 0.072629966 -0.030917527 -0.0042313794 -0.15874194 -0.1482631 -0.09520308 -0.17857316 0.27605966 0.05798466 -0.18760681 -0.012499708 0.34066916 -0.039620735 0.1590743 0.38499817 0.38729382 0.07202914 -0.31440282 0.20514251 -0.072908066 -0.41295335 0.016600214 0.1845069 0.20186673 -0.12265553 -0.21981543 -0.34173775 0.05848676 0.11073816 -0.33358985 0.0650396 -0.10856886 0.18355286 -0.07495505 0.0150790615 -0.12812036 -0.015923731 -0.3630916 0.088697106 0.07145027 0.10044211 -0.14872958 -0.15936834 -0.10081632 -0.09899398 0.08674438 0.33240682 -0.2847481 -0.114194095 0.16350307 0.10501758 0.3094195 -0.09177801 -0.11572118 0.13760719 0.110159196 0.07568855 -0.22773597 0.21757971 -0.28570578 -0.012004548 -0.24374919 -0.058124565 0.03218006 0.24395618
/base/contractbridge/bridge_tournament/standing./base/contractbridge/bridge_tournament_standings/second_place 0.08781348 -0.14706507 0.011112953 0.021947984 0.011743147 -0.07428338 -0.15110528 -0.12813821 0.038090657 -0.004025701 -0.0476488 -0.1261718 0.09176414 0.14191984 0.078594774 0.020418001 -0.1355752 -0.11362618 -0.10565004 0.021004174 0.1834748 0.024742529 0.12850182 -0.13019653 -0.08589493 -0.15224166 -0.10371733 0.013562079 -0.18151826 0.046689305 -0.032087646 0.023128511 -0.081192814 -0.10798481 0.14479288 0.026825236 0.120466605 0.013404793 -0.1265491 0.12479306 -0.0062658726 0.14595236 0.13072486 -0.0070139132 -0.045428034 -0.0868561 -0.12561026 -0.12085035 0.0022736841 0.031838946 0.14557567 -0.09093767 -6.4540654E-4 -0.09678173 0.0055780937 -0.007216567 0.06485819 -0.13522601 -0.028581405 0.040949278 -0.113067396 0.1089506 -0.0693396 0.12200516 0.106590375 0.078560606 -0.07010831 0.080792405 0.013597554 -0.12595305 0.1118159 0.090467505 0.009750253 0.12260824 -0.037181742 0.014877069 0.068229295 -0.05317301 0.102620155 -0.08667197 -0.07321159 0.13516128 0.044045866 0.02530699 0.09322613 -0.030781351 0.14544241 0.16665831 -0.08960848 0.118292905 -0.07957156 0.10186687 0.05459722 -0.1362877 -0.18477583 -0.13794343 -0.15668495 -0.16515402 -0.086321026 0.16584352
/organization/organization_founder/organizations_founded 0.13110738 -0.02893745 0.06101519 -0.015582116 -0.13006982 0.055160105 -0.054709405 0.169844 0.06676401 -0.16078146 -0.021039987 0.16924757 -0.19625537 0.2495908 0.1676356 -0.06466416 -0.0052469447 -0.33298072 -0.2376034 -0.015248681 -0.14075522 0.16188371 -0.10769146 0.18424588 -0.35180914 -0.11373276 0.16407391 -0.1265062 -0.21785073 -0.28418088 -0.13793714 -0.10642522 -0.26500222 0.16270964 0.011215021 0.24425063 0.06404507 0.16422334 0.5432933 0.3025923 -0.09647867 -0.010477846 0.031053111 0.0361907 -0.05400429 -0.21811342 -0.15770474 -0.016989687 0.13493936 0.11817464 -0.16914645 0.09932607 0.21195135 0.06511774 -0.039289694 0.2613408 -0.08710919 0.26895824 -0.19131432 0.01969978 -0.24287385 0.062107418 -0.2920903 -0.158658 -0.19647728 -0.2965719 0.38884902 0.043852597 -0.24464546 -0.16443302 0.049448814 -0.108872965 0.13057432 0.26476607 -0.005971764 0.015522153 0.12015019 -0.028144678 -0.2684389 -0.3861698 -0.15178208 0.22162254 -0.15833442 0.10092864 -0.0023047866 -0.1586121 0.2538066 -0.057611227 0.10234348 -0.012806821 0.29609415 0.09968659 -0.2825192 0.045231964 -0.034787096 0.10946627 0.25549632 -0.14666528 0.060284022 0.15188436
/tennis/tennis_player/matches_won./tennis/tennis_match/loser -0.07036487 0.069680735 -0.12765972 -0.032803386 -0.04274303 0.028216759 0.12185794 -0.10006618 0.07299655 -0.12294308 0.06195913 0.06532394 -0.13381013 -0.13220823 -0.03745973 0.0998558 -0.11876213 -0.06751336 -0.14392173 -0.03559222 -0.034744702 0.073141634 -0.08726653 0.044253606 -0.03804814 -0.13722216 0.12586056 0.0405719 0.16446087 -0.13449655 0.16261394 0.026055016 -0.15871532 0.07088606 0.12000883 -0.026676444 -0.06591973 -0.012741123 0.10913138 -0.12516843 -0.15249102 -0.12937097 0.12235007 -0.13229121 0.12089944 -0.14730395 -0.10604353 0.1172013 0.10349903 0.08808695 0.07206115 0.13325493 0.058340717 -0.016186032 0.05637399 -0.02478182 -0.03816101 -0.0130538745 0.01818087 0.0391712 -0.09369163 0.091178246 -0.009800429 0.02891787 0.09810054 -0.099224694 -0.06984552 0.028744183 0.120808646 0.011682168 -0.12487427 0.054450486 -0.038615003 -0.051566184 -0.15102406 0.13822319 0.027191596 0.12122923 -0.13515325 0.037715457 -0.15200274 0.09048841 -0.13292214 0.102089934 -0.007212092 0.029797144 0.042274073 0.14077558 -0.016382458 -0.12451563 0.14237612 -0.0931905 0.028645873 0.10589503 -0.052138843 -0.10059581 0.007742666 0.009408336 0.16248812 -0.04586197
/government/government_office_or_title/governmental_body_if_any -0.009766327 0.1610034 -0.17035955 0.063411556 0.10050431 0.07464517 -0.08826472 0.1419405 -0.12153854 0.15749656 -0.094236396 -0.03787766 -0.052462835 -0.025511248 0.15199615 -0.123968095 0.17952374 -0.035514906 0.034418788 -0.15900233 -0.06891888 0.018906416 -0.09097313 -0.05086279 -0.115186736 -0.11153821 0.0107386075 0.08302165 -0.05582834 -0.15317287 0.057171963 0.12009892 -0.13146685 -0.08114462 -0.02367048 0.146865 -0.107568346 -0.019822532 0.15578873 0.07751369 0.040784534 0.12510338 0.03157106 0.09122856 -0.051695533 0.019551873 -0.07736315 -0.09548469 0.08714022 0.13177247 -0.020778865 -0.14399631 0.14748415 -0.11402876 0.07881413 -0.12709987 -0.159513 0.071183324 0.051505946 0.07866478 0.008351072 0.076441325 0.045585737 -0.020672444 -0.07821101 -0.12675783 0.07908953 -0.0044102008 0.14402461 -0.046262156 0.16223074 -0.11341482 -0.07785053 -0.0833994 0.16075279 0.1468548 0.019303286 0.1300543 0.107164845 -0.098905854 -0.06917273 0.07186105 0.08815374 0.12894978 -0.08064887 -0.008540295 -0.030359473 -0.15861596 -0.04772306 -0.08680834 -0.013489791 0.1659512 -0.009871361 0.052848626 0.015977357 -0.1371642 0.14935365 0.023823602 0.10027444 0.043554347
/base/popstra/religion/membership./base/popstra/religion_choice/member 0.063920565 0.15318918 0.015750917 -0.04595136 0.07061146 -0.04846409 -0.022271613 -0.124050185 0.030701652 0.15966406 -0.109812826 0.32909128 0.41715357 -0.28034464 0.1410696 -0.011743508 0.074936844 0.022000436 -0.074926116 0.042627178 -0.017117126 -0.16665341 0.0012222907 -0.049580052 0.23100017 -0.23173365 0.20033647 -0.28807777 0.20106708 0.038228814 0.023842635 0.22932926 0.24330378 0.19760656 0.24470921 -0.18147144 -0.19790378 -0.13131867 -0.29504305 -8.1187394E-4 0.09573564 0.10433026 0.18015178 -0.20909315 0.09215803 0.32373637 0.045098364 -0.13044374 -0.19689101 -0.04884148 0.094973184 0.13559358 0.37261054 0.019060865 -0.26286313 -0.2540347 -0.23556778 0.09618476 0.029527564 0.060989488 0.1954533 -0.20894171 -0.26367256 -0.03772137 0.15571354 -0.23487897 -0.21842016 0.22300442 0.3333285 0.29738036 -0.018452808 -0.19204281 -0.119940415 -0.13325247 -0.23346932 -0.061771482 0.1805565 0.12102816 -0.006180685 -0.08675766 -0.38556626 -0.30870235 0.10258247 -0.010465774 -0.15081887 -0.040790502 0.13845423 -0.1407062 -0.100034095 -0.4200035 0.05553347 -0.3825714 0.057859644 -0.01312072 0.0039200694 -0.11211944 0.23074186 0.10879127 -0.054062236 -0.12481061
/basketball/basketball_player/team./sports/sports_team_roster/team -0.06861249 -0.055401817 -0.12260292 -0.07445648 -0.1420686 -0.12874594 -0.15946938 0.04824086 0.011799553 0.101730704 0.04208975 0.08262168 -0.08091968 -0.0914752 -0.11969382 -0.040424224 -0.050253354 0.029788356 -0.05393555 0.15407565 0.039015643 -0.11407198 -0.0034689843 0.15893711 -0.114808545 0.04863692 -0.046802387 0.046310335 -0.15317413 0.07367956 0.091945045 0.017865323 -0.068902746 0.027112147 -0.061683282 0.017817104 -0.01889049 -0.09833982 -0.1484413 0.03320771 -0.12141456 0.13867183 0.030900925 -0.15089913 0.10872364 0.14617361 -0.12999968 0.06767197 -0.012275326 -0.020128476 -0.017481357 -0.0016785095 0.0058580963 0.0981243 0.17441034 0.017783117 -0.028483834 0.19510739 0.13774632 0.18259987 -0.17473371 -0.074714296 0.12357163 -0.04000757 -0.16781442 0.06764706 0.0635626 -0.13180001 -0.13143715 0.0045646466 -0.05293173 0.07644524 0.07527269 0.0148960035 0.12156545 -0.09572384 0.06747944 0.116142645 0.1272918 0.14667821 -0.1392407 -0.06112755 -0.09058804 0.045856502 0.07695154 0.16825354 -0.06551085 0.017684378 -0.08707284 0.04980626 -0.095408075 -0.06811495 0.035206683 -0.12137071 0.14501077 -0.067505 0.021146351 0.06955287 -0.018893747 -0.10355642
/award/award_nominated_work/award_nominations./award/award_nomination/nominated_for 0.023255384 0.01071935 0.015752207 0.009567199 -0.012276849 0.025176112 0.025641907 -0.06656942 7.996822E-4 0.015471689 0.03546391 -0.012898812 -0.012513103 -6.216788E-4 0.031967543 -0.005257507 -0.007003793 0.024831668 -0.008780699 -0.045033135 -0.045637 0.0015556028 0.0078604715 -0.007892529 0.021825211 0.012392676 0.009057243 -0.014643571 -0.028212609 0.0029645565 -0.0040811207 -0.0017567995 -0.009147262 -0.022467911 -0.028731136 -0.0051091462 -0.011901319 -0.016634675 -0.0015480383 0.009940095 0.010761603 0.028929725 0.020390527 0.019295843 -0.0083652865 -0.025950551 -0.0020977384 0.01751026 -0.06454203 0.0031043561 -0.01356226 8.5868494E-5 0.023489766 0.0118730115 -0.021233793 0.018225634 0.023801208 0.024851011 -0.019129174 0.0011743571 -0.007777705 -0.027308483 -0.03259267 0.021158438 -0.009717371 -0.01453044 -0.017062044 0.024187924 0.0048853997 0.016915893 -0.006413621 0.024981108 -0.0074127666 0.008013388 0.018633626 0.03981334 0.025930516 -0.021328194 -0.014771958 0.025488637 0.013394245 0.04438222 0.02304079 -0.010761213 -0.008760353 -0.010781719 -0.010853663 -0.0037478455 0.013512877 0.0118682785 -0.0017797314 0.009989735 -0.043063816 -0.0038825232 -0.017558014 -0.0068823136 -0.009246181 0.016755862 0.02343031 -0.01363776
/medicine/disease/medical_specialties -0.12226878 -0.11506903 0.17041309 0.21207505 -0.014822336 0.005419441 -0.12513377 0.34631017 -0.04910542 -0.10844552 0.032002714 0.2539349 0.08095639 0.097621165 0.11437543 0.0394192 0.089722864 -0.09106997 0.18385473 0.023921605 -0.08952198 0.15980442 -0.023472702 -0.053019144 0.09374096 0.08017317 -0.09038596 0.12941569 -0.23208335 -0.01384025 -0.20076206 0.06875344 -0.1095127 -0.002126493 0.18862113 0.0826249 0.059645772 -0.10047459 0.24341092 -0.0848785 0.12548673 -0.17435227 -0.09435359 -0.11123205 -0.17068414 0.116961434 -8.583855E-4 -0.35478675 -0.30311325 -0.05098633 0.24026832 0.24121027 -0.12239204 0.41005278 -0.15283081 -0.09502347 -0.118385516 -0.014730303 0.16651818 0.020308157 0.1432602 -0.12570722 -0.073673286 -0.03564855 0.0887763 0.07375439 0.11872596 -0.043613423 -0.017297413 -0.2973208 -0.063596934 -0.0450716 -0.04198903 0.08918264 -0.15151586 0.12992126 0.10714879 -0.052257482 0.16760845 -0.07028729 0.12619223 -0.109940514 -0.23062932 -0.03704656 -0.23995875 -0.09846761 -0.24296603 -0.21147138 -0.144022 -0.13629995 0.026998404 0.08469188 0.071001954 -0.17266446 -0.19902353 -0.113552324 0.050620984 0.14223965 0.023200007 -0.13755971
/film/film_job/films_with_this_crew_job./film/film_crew_gig/crewmember 0.06369821 0.17370245 0.14522886 0.021308567 -0.044454962 -0.15944748 -0.0903055 -0.11933575 0.056320466 0.076132536 0.020480927 0.023022994 0.1600717 -0.10410286 -0.067398995 0.27997077 0.16443765 -0.0068101753 0.04570322 0.11234701 0.06645113 -0.14206511 -0.04903842 0.07064625 -0.026705455 -0.06172606 0.10826704 -0.26362416 0.28686884 -0.21040754 0.15609148 -0.13644753 0.15345533 0.019463906 0.042728346 0.0012733929 -0.07881448 -0.17562035 0.04269455 -0.17630185 0.2875552 -0.21963423 0.35147288 0.17387706 -0.10906605 0.06814682 0.11570938 0.14033179 -0.19234931 -0.14945644 -0.081737466 0.15541269 -0.018433737 -0.15613961 0.27976987 -0.14203182 0.05293543 -0.2402343 0.08972958 -0.037464455 -0.25983605 0.112333514 -0.14953046 -0.10686506 -0.17004614 -0.091484405 -0.15230973 -0.0067869676 -0.16391933 -0.26930913 -0.1460656 0.19597416 0.4324571 -0.34628633 -0.14034247 -0.036358777 0.033540197 0.018121064 0.22796974 -0.1823761 -0.103105 -0.017446956 0.18753523 -0.16091076 0.34302363 -0.1019548 -0.10076645 -0.16963491 0.2760106 -0.38040063 -0.089903735 0.014770641 -0.07678133 0.24977483 0.17479701 -0.08044981 0.013731992 -0.020934192 -0.05318718 0.0025763926
/education/field_of_study/subdisciplines 0.079111025 0.19918624 -0.047301136 0.17922251 0.18059966 -0.12387304 0.16986366 0.056204002 -0.04084237 -0.04176361 0.10968221 0.037604373 0.14152394 -0.05331864 0.09359248 0.09206687 -0.02681232 -0.03528761 -0.04073554 0.15636891 -0.09485863 0.012720541 0.030452428 -0.07191486 0.00903375 -0.08331915 0.1440179 0.038565747 -0.061865363 0.042096566 0.040088054 0.07791561 -0.056662854 0.037485138 0.066513926 -0.116864756 -0.08271595 0.0918304 -0.015345563 0.013420858 0.04496347 0.08402881 -0.15540268 -0.06593688 -0.14893016 -0.16753179 -8.718245E-4 -0.2072738 -0.07433447 0.09583114 0.052355215 -0.07404268 -0.030704252 -0.055601712 0.038784992 0.108876474 -0.18426518 -0.08204895 -0.075210854 -0.068012476 0.009477342 -0.20042978 0.06632499 -0.10518514 0.050315328 -0.1687288 0.19976687 0.16322829 0.053605963 -0.12360858 -0.064200126 -0.15616567 0.09195822 -0.017622313 0.21688035 0.075441405 -0.13905443 -0.17586342 -0.1332874 -0.06578361 0.13471633 0.050584614 0.021354375 0.014371637 -0.057442125 0.06779443 0.08948794 0.0491564 -0.026919201 -0.07522438 -0.020800103 -0.06423778 -0.21363792 0.020678531 -0.18916257 0.10469679 0.0925534 0.05612714 0.032177627 0.016398555
/baseball/baseball_league/teams -0.043497838 0.09894871 -0.060295943 0.032995127 0.06457496 0.1100478 -0.16721432 -0.13953453 0.11666253 -0.009343501 -0.10754684 0.12441168 -0.070920534 -0.0892509 -0.10592364 0.0046960237 0.1518057 -0.16335335 0.13934745 0.021119826 -0.087763436 0.07744917 0.19749767 -0.002866274 -0.074726984 -0.18566945 0.079335906 -0.008756534 0.037772637 0.07763349 -0.1916754 0.016019138 0.1671246 -0.14044642 0.09787499 0.07725171 -0.058518052 -0.06890372 0.058720775 -0.053053364 -0.12286241 0.05953775 -0.053559132 0.10012722 -0.041702982 -0.11204317 -0.071737744 -0.083600044 -0.13409172 0.030191017 -0.041992527 -0.03901537 0.033767868 0.075267926 0.1491724 0.112707675 -0.08028557 0.09337069 -0.07668481 0.043596003 -0.18609743 -0.14487754 0.037628982 -0.18861362 0.06695416 -0.034590054 -0.107079946 0.124033004 0.093031876 -4.8266206E-4 0.07334902 0.010846294 -0.03955654 0.18101493 -0.14592603 -0.09855522 0.016270837 0.12377548 -0.1355715 -0.116666466 -0.08710571 0.075706385 0.020098416 -0.01842865 0.10302066 0.15599127 0.078419596 0.05697834 0.13993318 0.075793594 0.18228422 -0.019885054 0.11070942 -0.11768543 -0.056141317 -0.08282228 -0.047700737 0.06959539 0.2044724 -0.032922458
/base/americancomedy/comedy_group/members./base/americancomedy/comedy_group_membership/member 0.016023437 0.10854225 -0.211693 0.048890404 -0.0041620936 0.05270952 -0.058579955 -0.121418566 8.2771666E-4 0.03126169 0.20845728 0.10746589 0.08297606 0.012485228 0.13087766 -0.0024168836 -0.07065567 0.0875 -0.06604893 -0.14049259 0.117775716 0.0062592933 -0.21170072 0.20265101 0.046986878 -0.11878705 -0.039822895 -0.0022048496 0.06856349 0.025705634 0.10742482 -0.25616422 -0.18592928 0.01959843 0.12935352 0.022290176 -0.1359345 -0.08723833 -0.10239049 -0.02680822 0.084361956 0.06693455 -0.012312466 -0.099103816 0.031652767 -0.027454188 -0.061557297 0.08819962 0.16496903 0.08273422 0.013454337 -0.14357504 -0.11006999 -0.19052522 -0.19204438 -0.098054774 0.1368099 -0.25441745 0.23598665 0.07845348 0.23305517 -0.17945096 0.047251504 0.12704122 -0.16088292 0.19858336 0.06515116 0.09341466 -0.013509024 0.16710559 -0.087898016 -0.113630824 -0.21278626 -0.108673364 0.14343579 -0.0711613 -0.12249576 0.17043899 0.087025404 0.08685414 0.0047452003 0.030803133 -0.04472369 0.016567964 0.19008583 -0.18999842 -0.13966197 0.10725936 0.018152265 -0.12626024 -0.12720269 0.26062277 -0.11165724 -0.08722249 -0.12163107 0.05883649 -0.011009299 0.25286576 -0.03031949 -0.27004236
/american_football/football_coach_position/coaches_holding_this_position./american_football/football_historical_coach_position/coach 0.12881175 0.032584313 0.16307409 -0.13307941 0.11751053 -0.0791372 0.15346608 -0.054585896 -0.17716707 -0.089273825 -0.08088839 0.049100515 -0.019196214 0.11299296 -0.05901954 -0.093069084 0.00509692 -0.13248962 -0.047297604 -0.042020496 -0.1105539 0.083249435 -0.046655167 0.03786932 0.103662066 0.046701428 0.06711109 -0.0049761524 -0.083937354 -0.028493872 -0.12338647 -0.052969184 0.1337335 -0.06535863 0.12049974 0.01496176 0.14261293 -0.07702517 0.14030153 0.12894952 -0.08732743 0.094699845 -0.053456377 0.08908299 0.07303183 -0.055950344 -0.020595623 0.13641609 0.14239958 -0.079973854 0.061308637 0.14720331 -0.08406208 0.06763951 -0.12159757 -0.054742943 0.012412246 -0.17162716 -0.029035827 0.1661197 0.18178596 -0.037194278 -0.01361562 -0.07195164 0.17323753 0.07657458 0.11350476 0.1137635 0.13038127 0.15101261 -0.035307452 0.14460854 -0.028921848 0.03071182 0.020971637 0.14748825 -0.10922641 0.018177528 0.15379456 -0.041389063 -0.1048159 0.020329919 -0.06800654 -0.13068454 0.13670647 -0.010279081 0.17372428 -0.040992208 0.08271134 0.028671125 0.14833973 0.028226204 -0.15738101 0.06079719 0.14094186 -0.07003235 -0.071127616 -5.742702E-4 -0.0509583 -0.118203595
/finance/currency/countries_formerly_used -0.17324291 -0.10081268 0.039608475 -0.20005998 0.08336693 -0.01866364 -0.21290407 0.09477243 -0.039243244 -0.171267 -0.05999506 -0.1144372 -0.08316584 0.11219872 -0.15829346 2.6821776E-4 -0.14389369 0.11794991 -0.1367163 -0.047772527 0.038095023 -0.0937583 0.03592833 0.085282356 -0.033236932 -0.13344774 -0.017361412 0.14496419 0.0885535 -0.20558804 0.034933075 0.093384445 -0.0068353033 0.06996951 0.057732083 -0.09035441 -0.044722993 0.046987742 -0.017093536 -0.08757671 0.011687704 -0.079356275 -0.053831503 -0.06283713 0.080647916 0.17172171 -0.15004975 0.03305758 0.15724239 -0.1167789 -0.0845416 -0.14775176 -0.15969338 -0.1335071 -0.096232995 -0.005393385 0.07110481 -0.0966179 0.14014149 -0.22561477 -0.14366162 0.09068303 0.016247222 0.023518916 -0.061621852 0.13887462 -0.0826173 -0.025731904 -0.03649448 -0.03597764 0.1877747 -0.029700674 0.12428546 0.015081754 -0.13656782 -0.12510045 0.030804196 -0.117660746 0.11417633 0.05319427 -0.06412482 -0.1503423 2.6189844E-4 -0.032026105 -6.55837E-4 0.1782447 -0.13003747 -0.04306984 -0.106865436 0.026103718 -0.1397992 0.057009693 0.13685204 0.059314948 0.09526497 0.08322779 -0.06906534 -0.13876875 -0.12499792 -0.11648701
/architecture/architectural_style/architects 0.116696596 -0.058550697 0.014477637 0.087493464 0.09036462 -0.03684748 -0.12541379 0.065979324 -0.17355306 0.16915081 -0.006271473 0.032074656 -0.05805735 0.004719011 -0.12405922 -0.0229594 -0.05167473 0.10236018 0.03813518 -0.044133455 -0.03590325 0.16817996 0.05250762 0.0014442599 0.08604603 -0.11605743 -0.13823913 -0.09923336 0.17106237 0.20938638 0.056613494 -0.053527538 0.06883113 0.10122052 0.0064326255 -0.07262449 0.16305767 -0.12697583 -0.16259134 0.07503215 -0.0196589 -0.114596024 -0.08385497 -0.086230904 -0.039661646 -0.11060954 -0.108859025 -0.11186037 -0.1308521 -4.9546815E-4 0.16501965 -0.017816758 0.156141 -0.014914813 0.10354765 0.04896861 -0.13535602 -0.23172541 -0.11781161 -0.09762723 0.18133184 -0.018673312 -0.18781954 -0.110602885 -0.025448946 0.015075877 -0.0045832065 -0.043388754 0.10013761 -0.056288596 0.16415489 -0.05298883 0.13285859 0.053460013 0.07150619 -0.21605355 -0.032214392 -0.043737713 -0.0107064005 -0.117126614 -0.21215524 -0.16590399 0.19715653 -0.17572288 -0.06292378 -0.111284554 -0.18938456 0.13519272 0.10607334 -0.016403032 -0.05346169 -0.020113256 -0.094105445 0.121224485 -0.20244043 0.021730354 0.100493856 0.060499847 -0.025694137 0.07282947
/base/ecology/ecosystem/ecosystem_members 0.05052089 0.111072764 -0.08884339 0.002666068 -0.041111253 0.10152307 -0.09538424 -0.11802014 -0.05573843 0.12469763 -0.1494994 -0.09679269 -0.11217669 0.15754882 0.122208044 0.10208952 0.09328599 -0.01272641 -0.12608941 -0.051044445 0.16580816 0.13004167 0.17316984 0.16748585 0.05940581 0.14507355 0.16981868 0.055928875 0.059612524 -0.020400748 -0.05522352 0.08563597 -0.014809931 0.15235944 -0.070594825 0.14617833 -0.036128253 0.012427687 0.049057238 0.09339778 0.14130072 -0.12017977 -0.10275167 0.07194918 -0.16620818 0.07588899 -0.06869807 0.07747695 0.1451843 -0.084246725 -0.063838035 -0.1235273 0.12940393 -0.076497495 -0.03979289 -0.016415484 0.07944878 -0.09978638 0.09513581 -0.05803525 0.074013434 -0.15545724 -0.14577106 0.11887072 -0.024511643 0.051597904 0.010854215 -0.11468047 0.13888721 -0.1647211 -0.008348253 -0.062021863 0.14193606 -0.060721725 0.13733405 0.09142706 -0.015839046 -0.119750455 0.034991767 -0.1687204 -0.051906165 0.06475166 -0.109144695 -0.045503102 -0.07650868 0.06524363 0.028898196 -0.055680145 -0.07153874 0.019624537 -0.030599168 -0.1199197 -0.11151075 0.15776075 0.17318165 0.10376292 0.08015525 0.0010218639 0.05062701 0.032143634
/people/appointer/appointment_made./people/appointment/appointed_role -0.060926102 0.09644223 0.045902137 0.06656103 -0.06290655 0.10248618 0.14051116 -0.017514419 0.075592704 -0.014318753 -0.30570248 -0.061415 -0.14129817 -0.20771815 -0.07804013 0.081224695 -0.17187728 -0.0027939843 0.16443951 -0.13975126 -0.25575286 0.13629095 -0.0788859 -0.14226134 -0.09858232 -0.15323025 -0.103089474 0.01671219 0.12176569 0.056589987 0.041324485 -0.029370854 -0.095499165 -0.17298165 -0.17670666 0.16231135 0.15213004 -0.21693715 -0.005246338 0.26813748 -0.13786058 -0.023089677 0.03709487 0.04689925 -0.1103537 0.06366983 0.099056855 -0.107560344 0.22378512 -0.18026844 -0.065999 -0.0800203 -0.14203866 -0.12729481 -0.09245596 -0.120312795 0.041605443 0.22965795 -0.0058571086 0.068016306 -0.23784526 0.15781046 -0.034151476 -0.027477287 -0.08980017 0.1251632 0.28376752 0.10805299 -0.055967145 -0.10350924 0.0048224675 0.07085627 0.0051782317 -0.013256728 0.14706272 -0.106048204 -0.080696024 -0.23500302 -0.14297512 -0.008288631 0.029677514 0.04721971 0.18247236 0.07776632 -0.16197412 -0.20094842 -0.021400535 -0.14897959 0.0069133197 0.11000506 0.13244735 -0.077206664 -0.019061632 0.0032323117 0.22754222 -0.09506813 0.06846323 -0.123165816 0.012566844 0.14775547
/military/military_commander/military_commands./military/military_command/military_conflict 0.37432683 0.21180639 0.073983505 -0.0066160997 -0.05503774 0.065579854 0.1814223 -0.06933861 -0.0837132 0.21413006 -0.44037515 -0.02304748 -0.28130966 0.03588114 -0.17756288 0.26445183 0.14251237 0.04634984 -0.37800494 -0.017170792 -0.14073442 -0.16695155 0.2100844 0.09237265 -0.08696718 -0.0344151 0.09262307 -0.088859946 -0.12104964 0.025476327 -0.1556758 -0.17193495 -0.10828978 -0.03189713 0.031283118 0.028056353 -0.049921166 -0.040809464 -0.042163655 -0.049912382 0.0098824045 -0.049426265 -0.2630447 -0.32698622 -0.07692743 -0.062225137 0.05869173 -0.2226663 0.0028139472 -0.024457684 0.16593182 -0.11010333 0.01871879 0.24805027 0.121489584 -0.004105876 -0.012316732 0.18595682 -0.27107322 0.029761052 -0.02444382 0.221042 0.08627335 -0.2135327 -0.2258033 0.0017115977 0.2973496 -0.1723168 -0.20002133 0.12337118 0.06351678 0.10486995 -0.118650645 0.16331957 -0.14950591 -0.30365345 -0.055012554 -0.051677868 -0.31265995 -0.15654211 -0.024723852 0.28816938 0.11242683 -0.005264179 0.18658379 0.015086293 0.08634319 -0.076812364 -0.4003465 -0.3113329 -0.047199868 0.17016612 0.0327805 0.012291394 -0.075480886 -0.119400024 0.030639814 -0.21743004 -0.076548405 0.03582011
/royalty/royal_line/kingdom_s_ruled -0.14625171 0.3023817 0.030803034 -0.13297392 -0.06656677 -0.22032754 -0.13344678 -0.017970614 -0.16185047 0.06513641 0.17911711 -0.107171305 -0.049745478 -0.066939235 -0.052388567 -0.16641276 0.07017 0.04600001 -0.08543019 0.051953845 -0.10782073 0.224757 0.10232957 -0.011983944 -0.14821039 0.023591777 -0.22172011 -0.083459154 -0.018523086 0.010194598 -0.003646762 -0.073616154 0.014944611 0.13631633 0.035102632 0.17971419 0.23472874 -0.122614376 -0.2946085 0.107835166 -0.13112645 -0.2251474 -0.036942616 0.14579755 -0.157186 0.0729922 -0.32601222 -0.07678918 -0.23858233 -0.07084621 0.05209013 0.03839123 -0.26019418 -0.16489357 -0.03154243 -0.007737528 -0.1492826 0.11872445 0.18409488 -0.12058106 0.07403336 0.16197912 -0.14442527 -0.12020463 -0.12348463 0.13053298 -0.20065023 0.07014286 -0.28533828 0.09921907 0.097416066 0.0066401977 0.06318213 0.011212202 -0.16256478 0.05732724 -0.1178057 -0.1424604 0.19786191 0.05861606 -0.033886757 -0.110704586 -0.15203388 -0.08901104 -0.19328889 0.09873001 0.09842545 -0.016078947 -0.07040276 -0.1453867 0.21888378 0.042941302 -0.1459239 0.07225695 0.062320627 -0.16402575 -0.18046258 0.001942945 -0.1572391 0.11567723
